{"learner":{"attributes":{"best_iteration":"4","best_score":"0.6700433452924093"},"feature_names":["at_round_number_flag","ath_distance","atr_14","atr_14_norm","bb_lower","bb_pct_b","bb_squeeze_flag","bb_upper","bb_width","cmf_20","cvd_approx","distance_to_round_pct","doge_btc_corr_12h","doge_btc_corr_24h","doge_btc_corr_7d","dogebtc_mom_24h","dogebtc_mom_48h","dogebtc_mom_6h","ema_14","ema_200","ema_21","ema_50","ema_7","funding_available","funding_extreme_long","funding_extreme_short","funding_rate","funding_rate_zscore","hl_range","htf_1d_return","htf_1d_trend","htf_4h_bb_pctb","htf_4h_rsi","htf_4h_trend","ichimoku_cloud_position","log_ret_1","log_ret_12","log_ret_168","log_ret_24","log_ret_3","log_ret_48","log_ret_6","macd_hist","macd_hist_direction","macd_line","macd_signal","mom_12","mom_24","mom_48","mom_6","nearest_round_level","obv","obv_ema_ratio","price_vs_ema200","price_vs_vwap","regime_encoded","regime_is_decoupled","regime_is_ranging_high","regime_is_ranging_low","regime_is_trending_bear","regime_is_trending_bull","rolling_kurt_24","rolling_skew_24","rsi_14","rsi_overbought","rsi_oversold","sma_200","sma_21","sma_50","sma_7","stoch_crossover_flag","stoch_d","stoch_k","vol_12","vol_168","vol_24","vol_48","vol_6","volume_ma_20","volume_ma_ratio","volume_ratio","volume_spike_flag","volume_spike_magnitude","vwap"],"feature_types":[],"gradient_booster":{"model":{"cats":{"enc":[],"feature_segments":[],"sorted_idx":[]},"gbtree_model_param":{"num_parallel_tree":"1","num_trees":"25"},"iteration_indptr":[0,1,2,3,4,5,6,7,8,9,10,11,12,13,14,15,16,17,18,19,20,21,22,23,24,25],"tree_info":[0,0,0,0,0,0,0,0,0,0,0,0,0,0,0,0,0,0,0,0,0,0,0,0,0],"trees":[{"base_weights":[-2.4198685E-2,-1.4533281E0,1.5992844E0,1.0724638E0,-1.7129351E0,1.7446384E0,2.6440677E-1,9.219858E-3,6.78392E-2,-4.783599E-1,-9.6721314E-2,9.219858E-3,1.8008299E0,-6.0000002E-2,6.78392E-2,-1.075075E0,4.3529414E-2,1.8616964E0,9.219858E-3,-7.5E-2,9.219858E-3,9.639233E-2,9.219858E-3],"categories":[],"categories_nodes":[],"categories_segments":[],"categories_sizes":[],"default_left":[0,0,0,0,0,0,0,0,0,0,0,0,0,0,0,0,0,0,0,0,0,0,0],"id":0,"left_children":[1,3,5,7,9,11,13,-1,-1,15,-1,-1,17,-1,-1,19,-1,21,-1,-1,-1,-1,-1],"loss_changes":[1.7311037E2,2.7850433E1,6.3176193E0,8.386984E-1,9.017029E0,2.4145432E0,9.001687E0,0E0,0E0,6.4573183E0,0E0,0E0,2.6206055E0,0E0,0E0,3.0612097E0,0E0,2.853508E0,0E0,0E0,0E0,0E0,0E0],"parents":[2147483647,0,0,1,1,2,2,3,3,4,4,5,5,6,6,9,9,12,12,15,15,17,17],"right_children":[2,4,6,8,10,12,14,-1,-1,16,-1,-1,18,-1,-1,20,-1,22,-1,-1,-1,-1,-1],"split_conditions":[5.820175E-1,-1.6851202E0,-3.0565888E-2,-6.987602E-1,-8.074874E-1,-1.3161668E0,1.7417389E0,9.219858E-3,6.78392E-2,1.7044869E-1,-9.6721314E-2,9.219858E-3,1.3185219E0,-6.0000002E-2,6.78392E-2,-5.039576E-1,4.3529414E-2,7.8996646E-1,9.219858E-3,-7.5E-2,9.219858E-3,9.639233E-2,9.219858E-3],"split_indices":[39,51,20,5,37,14,2,0,0,13,0,0,28,0,0,2,0,53,0,0,0,0,0],"split_type":[0,0,0,0,0,0,0,0,0,0,0,0,0,0,0,0,0,0,0,0,0,0,0],"sum_hessian":[7.2609375E1,3.8671875E1,3.39375E1,3.3125E0,3.5359375E1,3.0328125E1,3.609375E0,1.203125E0,2.109375E0,5.859375E0,2.95E1,1.203125E0,2.9125E1,1.5E0,2.109375E0,4.203125E0,1.65625E0,2.7921875E1,1.203125E0,3E0,1.203125E0,2.671875E1,1.203125E0],"tree_param":{"num_deleted":"0","num_feature":"84","num_nodes":"23","size_leaf_vector":"1"}},{"base_weights":[5.3120423E-2,-1.4525802E0,1.3371402E0,-1.6791275E0,6.593124E-2,2.8607333E-2,1.618551E0,-3.3189607E-1,-9.2169575E-2,6.292785E-2,-9.8642683E-1,-3.0818384E-3,1.6991439E0,-6.540417E-2,4.477517E-2,9.242716E-3,-7.057163E-2,1.757105E0,7.0912116E-3,7.977626E-3,9.09294E-2],"categories":[],"categories_nodes":[],"categories_segments":[],"categories_sizes":[],"default_left":[0,0,0,0,0,0,0,0,0,0,0,0,0,0,0,0,0,0,0,0,0],"id":1,"left_children":[1,3,5,7,-1,9,11,13,-1,-1,15,-1,17,-1,-1,-1,-1,19,-1,-1,-1],"loss_changes":[1.4148541E2,2.3371323E1,1.4490456E1,6.379799E0,0E0,1.1235447E1,4.5017624E0,6.7465005E0,0E0,0E0,2.723215E0,0E0,2.550827E0,0E0,0E0,0E0,0E0,2.6387787E0,0E0,0E0,0E0],"parents":[2147483647,0,0,1,1,2,2,3,3,5,5,6,6,7,7,10,10,12,12,17,17],"right_children":[2,4,6,8,-1,10,12,14,-1,-1,16,-1,18,-1,-1,-1,-1,20,-1,-1,-1],"split_conditions":[3.687487E-1,1.5539055E0,6.048003E-1,-8.644497E-1,6.593124E-2,-2.0320342E-1,-1.6645219E0,-1.7898917E-1,-9.2169575E-2,6.292785E-2,-6.446672E-1,-3.0818384E-3,2.0741627E0,-6.540417E-2,4.477517E-2,9.242716E-3,-7.057163E-2,-1.8998885E0,7.0912116E-3,7.977626E-3,9.09294E-2],"split_indices":[35,1,39,37,0,15,79,35,0,0,76,0,62,0,0,0,0,12,0,0,0],"split_type":[0,0,0,0,0,0,0,0,0,0,0,0,0,0,0,0,0,0,0,0,0],"sum_hessian":[7.117687E1,3.2700035E1,3.8476837E1,3.0593113E1,2.106921E0,7.0051627E0,3.1471674E1,3.6530108E0,2.6940102E1,3.0588E0,3.9463625E0,1.4512588E0,3.0020416E1,1.9981148E0,1.654896E0,1.2011491E0,2.7452135E0,2.8819508E1,1.2009091E0,1.2012641E0,2.7618242E1],"tree_param":{"num_deleted":"0","num_feature":"84","num_nodes":"21","size_leaf_vector":"1"}},{"base_weights":[2.5817717E-3,-1.249702E0,1.5196979E0,-1.4287548E0,5.3050376E-2,-6.1592823E-3,1.6017157E0,2.8524306E-1,-1.6994039E0,8.4232874E-2,1.7351782E-2,-6.023532E-2,6.111277E-2,-8.90721E-2,1.0183369E-2],"categories":[],"categories_nodes":[],"categories_segments":[],"categories_sizes":[],"default_left":[0,0,0,0,0,0,0,0,0,0,0,0,0,0,0],"id":2,"left_children":[1,3,5,7,-1,-1,9,11,13,-1,-1,-1,-1,-1,-1],"loss_changes":[1.3392174E2,1.749316E1,4.4921875E0,1.7308128E1,0E0,0E0,2.5820541E0,9.572474E0,5.2750854E0,0E0,0E0,0E0,0E0,0E0,0E0],"parents":[2147483647,0,0,1,1,2,2,3,3,6,6,7,7,8,8],"right_children":[2,4,6,8,-1,-1,10,12,14,-1,-1,-1,-1,-1,-1],"split_conditions":[5.8414763E-1,1.1584549E0,-1.6079029E0,-8.644497E-1,5.3050376E-2,-6.1592823E-3,-4.8389994E-2,-1.7898917E-1,2.0778394E0,8.4232874E-2,1.7351782E-2,-6.023532E-2,6.111277E-2,-8.90721E-2,1.0183369E-2],"split_indices":[35,13,78,37,0,0,67,35,73,0,0,0,0,0,0],"split_type":[0,0,0,0,0,0,0,0,0,0,0,0,0,0,0],"sum_hessian":[6.8490685E1,3.761672E1,3.0873968E1,3.5265724E1,2.3509972E0,1.4441682E0,2.94298E1,4.801883E0,3.0463839E1,2.7283499E1,2.1463006E0,1.7436327E0,3.0582507E0,2.926614E1,1.1976995E0],"tree_param":{"num_deleted":"0","num_feature":"84","num_nodes":"15","size_leaf_vector":"1"}},{"base_weights":[1.8380385E-2,-1.323917E0,1.4273068E0,-1.5042863E0,5.19067E-1,3.3295527E-1,1.5749226E0,-3.7819773E-1,-8.5369475E-2,5.6946E-2,-1.1323241E-2,9.7616124E-1,-5.2229892E-2,4.688612E-3,1.6302648E0,-6.84966E-2,8.2302815E-1,7.2337836E-3,6.256258E-2,2.6469951E-2,8.426688E-2,5.6368764E-2,5.65821E-3],"categories":[],"categories_nodes":[],"categories_segments":[],"categories_sizes":[],"default_left":[0,0,0,0,0,0,0,0,0,0,0,0,0,0,0,0,0,0,0,0,0,0,0],"id":3,"left_children":[1,3,5,7,9,11,13,15,-1,-1,-1,17,-1,-1,19,-1,21,-1,-1,-1,-1,-1,-1],"loss_changes":[1.390517E2,1.3299767E1,5.2695923E0,7.2584763E0,2.1529136E0,5.9204593E0,2.41568E0,8.9487295E0,0E0,0E0,0E0,7.996545E-1,0E0,0E0,9.3543243E-1,0E0,6.4883566E-1,0E0,0E0,0E0,0E0,0E0,0E0],"parents":[2147483647,0,0,1,1,2,2,3,3,4,4,5,5,6,6,7,7,11,11,14,14,16,16],"right_children":[2,4,6,8,10,12,14,16,-1,-1,-1,18,-1,-1,20,-1,22,-1,-1,-1,-1,-1,-1],"split_conditions":[6.279068E-1,1.1050651E0,5.8414763E-1,-8.208828E-1,-1.8165135E-1,8.281471E-2,-1.6408906E0,-6.134512E-1,-8.5369475E-2,5.6946E-2,-1.1323241E-2,7.3151636E-1,-5.2229892E-2,4.688612E-3,-1.7987139E0,-6.84966E-2,-5.1282173E-1,7.2337836E-3,6.256258E-2,2.6469951E-2,8.426688E-2,5.6368764E-2,5.65821E-3],"split_indices":[39,13,35,37,77,61,79,14,0,0,0,13,0,0,78,0,5,0,0,0,0,0,0],"split_type":[0,0,0,0,0,0,0,0,0,0,0,0,0,0,0,0,0,0,0,0,0,0,0],"sum_hessian":[7.1526535E1,3.666028E1,3.4866257E1,3.355964E1,3.1006403E0,4.531021E0,3.0335234E1,5.565314E0,2.7994324E1,1.4049063E0,1.6957339E0,3.287435E0,1.2435862E0,1.1896797E0,2.9145554E1,2.971551E0,2.5937626E0,1.1965808E0,2.0908544E0,1.8942156E0,2.7251339E1,1.4037584E0,1.1900042E0],"tree_param":{"num_deleted":"0","num_feature":"84","num_nodes":"23","size_leaf_vector":"1"}},{"base_weights":[5.2290614E-4,-1.0848483E0,1.3732519E0,1.0258787E0,-1.2909513E0,1.464687E0,6.6401693E-3,6.519823E-2,8.2697775E-3,-1.4083823E0,5.3971626E-2,1.5166681E0,4.466002E-3,-4.221404E-1,-8.257077E-2,7.858396E-2,5.388591E-3,-6.903606E-2,2.3187721E-2],"categories":[],"categories_nodes":[],"categories_segments":[],"categories_sizes":[],"default_left":[0,0,0,0,0,0,0,0,0,0,0,0,0,0,0,0,0,0,0],"id":4,"left_children":[1,3,5,7,9,11,-1,-1,-1,13,-1,15,-1,17,-1,-1,-1,-1,-1],"loss_changes":[1.1213192E2,1.9608322E1,3.5745468E0,8.1233835E-1,1.2301949E1,2.0700836E0,0E0,0E0,0E0,8.2526245E0,0E0,2.129715E0,0E0,8.050008E0,0E0,0E0,0E0,0E0,0E0],"parents":[2147483647,0,0,1,1,2,2,3,3,4,4,5,5,9,9,11,11,13,13],"right_children":[2,4,6,8,10,12,-1,-1,-1,14,-1,16,-1,18,-1,-1,-1,-1,-1],"split_conditions":[6.279068E-1,-1.6851202E0,-4.1743953E-2,3.0813456E-1,1.430492E0,4.5965844E-1,6.6401693E-3,6.519823E-2,8.2697775E-3,-8.074874E-1,5.3971626E-2,7.8996646E-1,4.466002E-3,-1.7898917E-1,-8.257077E-2,7.858396E-2,5.388591E-3,-6.903606E-2,2.3187721E-2],"split_indices":[39,51,67,16,75,37,0,0,0,37,0,53,0,35,0,0,0,0,0],"split_type":[0,0,0,0,0,0,0,0,0,0,0,0,0,0,0,0,0,0,0],"sum_hessian":[7.326043E1,4.102949E1,3.2230938E1,3.2961078E0,3.7733383E1,2.9849894E1,2.3810465E0,2.1015534E0,1.1945542E0,3.633896E1,1.3944252E0,2.8663828E1,1.1860663E0,7.7254796E0,2.8613478E1,2.747549E1,1.188336E0,3.4422443E0,4.2832355E0],"tree_param":{"num_deleted":"0","num_feature":"84","num_nodes":"19","size_leaf_vector":"1"}},{"base_weights":[-3.2884679E-3,-1.1382167E0,1.2753029E0,5.854271E-2,-1.3590624E0,1.4251866E0,1.7972074E-1,1.5129456E-1,-1.4781221E0,6.4925523E-3,1.4724783E0,8.1445456E-1,-5.4589015E-2,-4.7320522E-2,5.5047244E-2,-1.4691888E-1,-8.0296E-2,1.5213985E0,7.5463764E-3,5.6532156E-2,-3.579209E-4,-5.7654273E-2,5.3040296E-2,2.5499806E-2,8.0540664E-2],"categories":[],"categories_nodes":[],"categories_segments":[],"categories_sizes":[],"default_left":[0,0,0,0,0,0,0,0,0,0,0,0,0,0,0,0,0,0,0,0,0,0,0,0,0],"id":5,"left_children":[1,3,5,-1,7,9,11,13,15,-1,17,19,-1,-1,-1,21,-1,23,-1,-1,-1,-1,-1,-1,-1],"loss_changes":[1.0988596E2,2.2047817E1,5.5914116E0,0E0,6.890747E0,1.7188644E0,5.271371E0,4.811655E0,5.6265106E0,0E0,1.7089539E0,1.0977631E0,0E0,0E0,0E0,6.2286377E0,0E0,1.7834473E0,0E0,0E0,0E0,0E0,0E0,0E0,0E0],"parents":[2147483647,0,0,1,1,2,2,4,4,5,5,6,6,7,7,8,8,10,10,11,11,15,15,17,17],"right_children":[2,4,6,-1,8,10,12,14,16,-1,18,20,-1,-1,-1,22,-1,24,-1,-1,-1,-1,-1,-1,-1],"split_conditions":[5.820175E-1,-1.0789405E0,7.5364536E-1,5.854271E-2,-1.5468396E0,-4.0520212E-1,1.1123245E-2,-6.685664E-1,-8.860569E-1,6.4925523E-3,2.4919915E0,1.3144435E0,-5.4589015E-2,-4.7320522E-2,5.5047244E-2,-6.134512E-1,-8.0296E-2,-1.7987139E0,7.5463764E-3,5.6532156E-2,-3.579209E-4,-5.7654273E-2,5.3040296E-2,2.5499806E-2,8.0540664E-2],"split_indices":[39,4,26,0,31,36,61,14,37,0,4,9,0,0,0,14,0,78,0,0,0,0,0,0,0],"split_type":[0,0,0,0,0,0,0,0,0,0,0,0,0,0,0,0,0,0,0,0,0,0,0,0,0],"sum_hessian":[7.372516E1,3.9114964E1,3.46102E1,3.0389783E0,3.6075985E1,3.0180443E1,4.429757E0,2.6162505E0,3.3459732E1,1.1949902E0,2.8985453E1,3.1945105E0,1.2352467E0,1.2151107E0,1.40114E0,3.119118E0,3.0340616E1,2.7804966E1,1.1804855E0,2.0351713E0,1.1593392E0,1.7262254E0,1.3928926E0,2.8029947E0,2.5001972E1],"tree_param":{"num_deleted":"0","num_feature":"84","num_nodes":"25","size_leaf_vector":"1"}},{"base_weights":[1.099234E-1,-9.744338E-1,1.3460069E0,5.5709954E-2,-1.1814348E0,1.1675077E-2,1.4125785E0,-1.3033673E0,5.3201627E-2,1.4657445E0,3.7390407E-4,-1.4145741E0,-1.2922609E-1,2.7542068E-2,7.5322434E-2,-7.423574E-2,1.0149782E-2,3.790877E-2,-5.124097E-2],"categories":[],"categories_nodes":[],"categories_segments":[],"categories_sizes":[],"default_left":[0,0,0,0,0,0,0,0,0,0,0,0,0,0,0,0,0,0,0],"id":6,"left_children":[1,3,5,-1,7,-1,9,11,-1,13,-1,15,17,-1,-1,-1,-1,-1,-1],"loss_changes":[9.747875E1,1.809127E1,2.1843872E0,0E0,1.1184929E1,0E0,2.3671036E0,4.3079185E0,0E0,3.1224823E-1,0E0,3.8544617E0,4.0165057E0,0E0,0E0,0E0,0E0,0E0,0E0],"parents":[2147483647,0,0,1,1,2,2,4,4,6,6,7,7,9,9,11,11,12,12],"right_children":[2,4,6,-1,8,-1,10,12,-1,14,-1,16,18,-1,-1,-1,-1,-1,-1],"split_conditions":[7.241431E-1,-1.0789405E0,-1.7987139E0,5.5709954E-2,1.448051E0,1.1675077E-2,1.8161585E0,4.7764632E-1,5.3201627E-2,5.820175E-1,3.7390407E-4,1.6899545E0,1.1103238E-1,2.7542068E-2,7.5322434E-2,-7.423574E-2,1.0149782E-2,3.790877E-2,-5.124097E-2],"split_indices":[35,4,78,0,75,0,73,35,0,39,0,79,38,0,0,0,0,0,0],"split_type":[0,0,0,0,0,0,0,0,0,0,0,0,0,0,0,0,0,0,0],"sum_hessian":[7.0747475E1,3.7799473E1,3.2948E1,3.013255E0,3.4786217E1,2.1147664E0,3.0833235E1,3.3392506E1,1.3937111E0,2.9667517E1,1.1657181E0,3.0316368E1,3.076137E0,1.882712E0,2.7784805E1,2.913515E1,1.1812184E0,1.6222066E0,1.4539305E0],"tree_param":{"num_deleted":"0","num_feature":"84","num_nodes":"19","size_leaf_vector":"1"}},{"base_weights":[-1.3520709E-1,-1.065725E0,1.229472E0,9.5370483E-1,-1.2743722E0,1.31694E0,-1.1307775E-2,7.798999E-3,6.024589E-2,-2.442539E-1,-7.5460844E-2,7.320123E-2,4.134584E-1,-5.9212208E-2,4.48669E-1,-2.4304919E-2,5.6948405E-2,6.6559985E-2,-5.414058E-2],"categories":[],"categories_nodes":[],"categories_segments":[],"categories_sizes":[],"default_left":[0,0,0,0,0,0,0,0,0,0,0,0,0,0,0,0,0,0,0],"id":7,"left_children":[1,3,5,7,9,11,-1,-1,-1,13,-1,-1,15,-1,17,-1,-1,-1,-1],"loss_changes":[8.37979E1,1.7714752E1,3.7099724E0,6.6153574E-1,8.320946E0,2.7736511E0,0E0,0E0,0E0,5.651967E0,0E0,0E0,3.786476E0,0E0,8.538345E0,0E0,0E0,0E0,0E0],"parents":[2147483647,0,0,1,1,2,2,3,3,4,4,5,5,9,9,12,12,14,14],"right_children":[2,4,6,8,10,12,-1,-1,-1,14,-1,-1,16,-1,18,-1,-1,-1,-1],"split_conditions":[6.279068E-1,-1.14168E0,2.0166855E0,-2.3086022E-1,-8.074874E-1,4.369608E-1,-1.1307775E-2,7.798999E-3,6.024589E-2,-1.7898917E-1,-7.5460844E-2,7.320123E-2,1.4214497E0,-5.9212208E-2,-1.4604474E-2,-2.4304919E-2,5.6948405E-2,6.6559985E-2,-5.414058E-2],"split_indices":[39,83,15,49,37,37,0,0,0,35,0,0,35,0,17,0,0,0,0],"split_type":[0,0,0,0,0,0,0,0,0,0,0,0,0,0,0,0,0,0,0],"sum_hessian":[6.3958134E1,3.8158504E1,2.579963E1,3.238942E0,3.4919563E1,2.4427095E1,1.3725343E0,1.1638982E0,2.0750437E0,6.8616815E0,2.8057882E1,2.0473616E1,3.95348E0,2.6108522E0,4.250829E0,1.9123523E0,2.0411277E0,2.7797482E0,1.471081E0],"tree_param":{"num_deleted":"0","num_feature":"84","num_nodes":"19","size_leaf_vector":"1"}},{"base_weights":[1.6319282E-1,-9.594377E-1,1.3180255E0,5.284652E-2,-1.170214E0,-1.7422261E-3,1.3758776E0,-1.3566953E0,5.7420846E-2,-1.3022419E-4,1.4248834E0,-1.425694E0,1.2181661E-2,7.554921E-2,8.742716E-1,1.0216985E-2,-7.47652E-2,6.0298312E-2,2.3932788E-3],"categories":[],"categories_nodes":[],"categories_segments":[],"categories_sizes":[],"default_left":[0,0,0,0,0,0,0,0,0,0,0,0,0,0,0,0,0,0,0],"id":8,"left_children":[1,3,5,-1,7,-1,9,11,-1,-1,13,15,-1,-1,17,-1,-1,-1,-1],"loss_changes":[9.282896E1,1.6703327E1,2.8056984E0,0E0,1.6009106E1,0E0,2.2880478E0,3.8137283E0,0E0,0E0,2.2714996E-1,3.7368736E0,0E0,0E0,1.8032637E0,0E0,0E0,0E0,0E0],"parents":[2147483647,0,0,1,1,2,2,4,4,6,6,7,7,10,10,11,11,14,14],"right_children":[2,4,6,-1,8,-1,10,12,-1,-1,14,16,-1,-1,18,-1,-1,-1,-1],"split_conditions":[5.8414763E-1,-1.0789405E0,2.4875665E-1,5.284652E-2,1.448051E0,-1.7422261E-3,-1.6408906E0,1.6880108E0,5.7420846E-2,-1.3022419E-4,8.9298135E-1,-1.692424E0,1.2181661E-2,7.554921E-2,-4.2111844E-1,1.0216985E-2,-7.47652E-2,6.0298312E-2,2.3932788E-3],"split_indices":[35,4,39,0,75,0,80,80,0,0,80,80,0,0,10,0,0,0,0],"split_type":[0,0,0,0,0,0,0,0,0,0,0,0,0,0,0,0,0,0,0],"sum_hessian":[6.962698E1,3.5391533E1,3.4235455E1,2.9695156E0,3.2422016E1,1.4202659E0,3.2815186E1,3.03925E1,2.029515E0,1.1590543E0,3.1656134E1,2.9240892E1,1.1516073E0,2.5867043E1,5.789091E0,1.1183075E0,2.8122585E1,3.8032784E0,1.9858125E0],"tree_param":{"num_deleted":"0","num_feature":"84","num_nodes":"19","size_leaf_vector":"1"}},{"base_weights":[-4.9758404E-2,-1.0921019E0,1.1047702E0,4.5356423E-2,-1.2567285E0,-2.2595873E-2,1.2297114E0,2.2909805E-2,-1.3842038E0,1.2833478E0,-4.1487594E-3,1.0318292E-2,-7.261656E-2,8.662339E-3,1.3628188E0,2.9451697E-4,7.1193926E-2],"categories":[],"categories_nodes":[],"categories_segments":[],"categories_sizes":[],"default_left":[0,0,0,0,0,0,0,0,0,0,0,0,0,0,0,0,0],"id":9,"left_children":[1,3,5,-1,7,-1,9,-1,11,13,-1,-1,-1,-1,15,-1,-1],"loss_changes":[8.1736435E1,1.2880085E1,6.827667E0,0E0,7.930538E0,0E0,2.227188E0,0E0,3.6930695E0,2.322174E0,0E0,0E0,0E0,0E0,2.2216644E0,0E0,0E0],"parents":[2147483647,0,0,1,1,2,2,4,4,6,6,8,8,9,9,14,14],"right_children":[2,4,6,-1,8,-1,10,-1,12,14,-1,-1,-1,-1,16,-1,-1],"split_conditions":[5.575223E-1,-1.6928E0,3.875277E-1,4.5356423E-2,-1.5468396E0,-2.2595873E-2,2.0218425E0,2.2909805E-2,-1.1738697E0,-1.7987139E0,-4.1487594E-3,1.0318292E-2,-7.261656E-2,8.662339E-3,-1.6645219E0,2.9451697E-4,7.1193926E-2],"split_indices":[39,51,35,0,31,0,15,0,53,78,0,0,0,0,79,0,0],"split_type":[0,0,0,0,0,0,0,0,0,0,0,0,0,0,0,0,0],"sum_hessian":[6.59178E1,3.4670387E1,3.1247412E1,2.2945907E0,3.2375797E1,2.1271715E0,2.912024E1,2.0605693E0,3.0315228E1,2.7998566E1,1.1216735E0,1.1617905E0,2.9153439E1,2.0829275E0,2.591564E1,1.1631597E0,2.475248E1],"tree_param":{"num_deleted":"0","num_feature":"84","num_nodes":"17","size_leaf_vector":"1"}},{"base_weights":[-3.213372E-2,-1.0118699E0,1.0612068E0,-1.1736401E0,5.721398E-2,-1.7529976E-2,1.1464065E0,2.4373008E-2,-1.2927486E0,1.2959683E0,2.9275015E-1,9.139085E-3,-1.3536147E0,1.354131E0,1.5182935E-2,8.405182E-1,-5.0302554E-2,-1.95126E-2,-7.118155E-2,7.147801E-2,1.0821106E-2,5.6275066E-2,-1.711055E-3],"categories":[],"categories_nodes":[],"categories_segments":[],"categories_sizes":[],"default_left":[0,0,0,0,0,0,0,0,0,0,0,0,0,0,0,0,0,0,0,0,0,0,0],"id":10,"left_children":[1,3,5,7,-1,-1,9,-1,11,13,15,-1,17,19,-1,21,-1,-1,-1,-1,-1,-1,-1],"loss_changes":[7.379356E1,1.4009884E1,4.319824E0,7.411457E0,0E0,0E0,3.57238E0,0E0,3.1442642E0,1.0920525E0,5.0475216E0,0E0,1.5419159E0,1.7772102E0,0E0,1.2099109E0,0E0,0E0,0E0,0E0,0E0,0E0,0E0],"parents":[2147483647,0,0,1,1,2,2,3,3,6,6,8,8,9,9,10,10,12,12,13,13,15,15],"right_children":[2,4,6,8,-1,-1,10,-1,12,14,16,-1,18,20,-1,22,-1,-1,-1,-1,-1,-1,-1],"split_conditions":[6.048003E-1,1.1584549E0,-1.3161668E0,-8.0256736E-1,5.721398E-2,-1.7529976E-2,6.805841E-1,2.4373008E-2,-1.7918667E0,1.3185219E0,5.1402456E-1,9.139085E-3,-1.5038567E0,1.2122416E0,1.5182935E-2,1.4389209E0,-5.0302554E-2,-1.95126E-2,-7.118155E-2,7.147801E-2,1.0821106E-2,5.6275066E-2,-1.711055E-3],"split_indices":[39,13,14,63,0,0,53,0,31,28,76,0,28,79,0,5,0,0,0,0,0,0,0],"split_type":[0,0,0,0,0,0,0,0,0,0,0,0,0,0,0,0,0,0,0,0,0,0,0],"sum_hessian":[6.6887184E1,3.5315598E1,3.157159E1,3.3274757E1,2.04084E0,1.619561E0,2.9952028E1,2.0193975E0,3.125536E1,2.5045828E1,4.9062004E0,1.1588674E0,3.009649E1,2.3314651E1,1.7311766E0,3.6990013E0,1.2071991E0,2.484577E0,2.7611914E1,2.1624443E1,1.6902088E0,2.573805E0,1.125196E0],"tree_param":{"num_deleted":"0","num_feature":"84","num_nodes":"23","size_leaf_vector":"1"}},{"base_weights":[3.876424E-2,-9.048451E-1,1.1005248E0,5.4507494E-1,-1.1204007E0,-1.2889986E-2,1.1766391E0,-4.214504E-2,6.314694E-2,-1.2561487E0,4.8896503E-2,1.3059084E0,3.4161493E-1,-3.293609E-2,-6.986222E-2,6.8795465E-2,-4.187198E-3,5.026226E-2,-2.8837198E-2,-4.395811E-2,3.7463184E-2],"categories":[],"categories_nodes":[],"categories_segments":[],"categories_sizes":[],"default_left":[0,0,0,0,0,0,0,0,0,0,0,0,0,0,0,0,0,0,0,0,0],"id":11,"left_children":[1,3,5,7,9,-1,11,-1,-1,13,-1,15,17,19,-1,-1,-1,-1,-1,-1,-1],"loss_changes":[6.354125E1,1.1112505E1,3.386982E0,6.0679836E0,9.654118E0,0E0,2.6219597E0,0E0,0E0,4.8245316E0,0E0,2.4750137E0,3.7273078E0,3.2684474E0,0E0,0E0,0E0,0E0,0E0,0E0,0E0],"parents":[2147483647,0,0,1,1,2,2,3,3,4,4,6,6,9,9,11,11,12,12,13,13],"right_children":[2,4,6,8,10,-1,12,-1,-1,14,-1,16,18,20,-1,-1,-1,-1,-1,-1,-1],"split_conditions":[5.8414763E-1,-1.5031083E0,-1.7987139E0,-1.9700499E-1,1.430492E0,-1.2889986E-2,1.0856935E0,-4.214504E-2,6.314694E-2,-8.644497E-1,4.8896503E-2,1.9851693E0,-1.2897179E-1,-1.7898917E-1,-6.986222E-2,6.8795465E-2,-4.187198E-3,5.026226E-2,-2.8837198E-2,-4.395811E-2,3.7463184E-2],"split_indices":[35,28,78,36,75,0,16,0,0,37,0,73,18,35,0,0,0,0,0,0,0],"split_type":[0,0,0,0,0,0,0,0,0,0,0,0,0,0,0,0,0,0,0,0,0],"sum_hessian":[6.142763E1,3.2601643E1,2.882599E1,4.0216413E0,2.858E1,1.4029074E0,2.7423082E1,1.311569E0,2.710072E0,2.722038E1,1.3596197E0,2.3258532E1,4.16455E0,2.9426694E0,2.4277712E1,2.2152536E1,1.1059965E0,2.3626366E0,1.8019134E0,1.3539412E0,1.5887283E0],"tree_param":{"num_deleted":"0","num_feature":"84","num_nodes":"21","size_leaf_vector":"1"}},{"base_weights":[2.5352823E-2,-8.7565255E-1,1.0210173E0,8.668589E-1,-1.0870397E0,2.132934E-1,1.1436614E0,5.5543184E-2,5.800578E-3,-1.5554881E-1,-1.2675003E0,4.572044E-2,-4.865488E-2,-7.3864223E-3,1.2046919E0,-5.4649603E-2,8.032051E-1,1.3746056E-2,-6.7471944E-2,1.268975E0,-4.3043676E-3,5.3212624E-2,7.1743913E-3,1.8139984E-2,6.638401E-2],"categories":[],"categories_nodes":[],"categories_segments":[],"categories_sizes":[],"default_left":[0,0,0,0,0,0,0,0,0,0,0,0,0,0,0,0,0,0,0,0,0,0,0,0,0],"id":12,"left_children":[1,3,5,7,9,11,13,-1,-1,15,17,-1,-1,-1,19,-1,21,-1,-1,23,-1,-1,-1,-1,-1],"loss_changes":[5.684867E1,1.3201254E1,2.7370167E0,6.3272357E-1,4.8666496E0,5.2118526E0,2.2189102E0,0E0,0E0,6.2964487E0,3.5426521E0,0E0,0E0,0E0,2.1700363E0,0E0,4.5985937E-1,0E0,0E0,7.802391E-1,0E0,0E0,0E0,0E0,0E0],"parents":[2147483647,0,0,1,1,2,2,3,3,4,4,5,5,6,6,9,9,10,10,14,14,16,16,19,19],"right_children":[2,4,6,8,10,12,14,-1,-1,16,18,-1,-1,-1,20,-1,22,-1,-1,24,-1,-1,-1,-1,-1],"split_conditions":[6.048003E-1,-1.6851202E0,5.8414763E-1,-7.265785E-1,-8.644497E-1,8.281471E-2,-1.5087804E0,5.5543184E-2,5.800578E-3,-6.134512E-1,-1.692424E0,4.572044E-2,-4.865488E-2,-7.3864223E-3,1.3195676E0,-5.4649603E-2,-4.689193E-1,1.3746056E-2,-6.7471944E-2,-1.116478E0,-4.3043676E-3,5.3212624E-2,7.1743913E-3,1.8139984E-2,6.638401E-2],"split_indices":[39,51,35,28,37,61,62,0,0,14,79,0,0,0,9,0,2,0,0,2,0,0,0,0,0],"split_type":[0,0,0,0,0,0,0,0,0,0,0,0,0,0,0,0,0,0,0,0,0,0,0,0,0],"sum_hessian":[6.1372837E1,3.2281193E1,2.9091642E1,3.1569483E0,2.9124245E1,4.1960316E0,2.489561E1,2.0207725E0,1.1361758E0,5.028804E0,2.409544E1,2.7815092E0,1.4145225E0,1.0593568E0,2.3836254E1,2.4718668E0,2.556937E0,1.0966567E0,2.2998783E1,2.2721573E1,1.1146826E0,1.3926687E0,1.1642681E0,1.8192675E0,2.0902304E1],"tree_param":{"num_deleted":"0","num_feature":"84","num_nodes":"25","size_leaf_vector":"1"}},{"base_weights":[1.224656E-2,-1.0144796E0,1.0591717E0,-1.1320926E0,4.577965E-2,-1.2417453E-1,1.1790287E0,-8.788867E-2,-6.6435724E-2,-4.740414E-2,3.199473E-2,1.2366877E0,-5.430072E-3,-5.1321138E-2,7.819074E-1,-7.7311473E-4,1.2933608E0,5.1840514E-2,6.9826185E-3,1.759906E-2,6.7551695E-2],"categories":[],"categories_nodes":[],"categories_segments":[],"categories_sizes":[],"default_left":[0,0,0,0,0,0,0,0,0,0,0,0,0,0,0,0,0,0,0,0,0],"id":13,"left_children":[1,3,5,7,-1,9,11,13,-1,-1,-1,15,-1,-1,17,-1,19,-1,-1,-1,-1],"loss_changes":[6.55875E1,8.030859E0,4.430542E0,5.9377403E0,0E0,2.9250546E0,2.1776924E0,5.4913397E0,0E0,0E0,0E0,1.8951225E0,0E0,0E0,4.3616152E-1,0E0,8.976021E-1,0E0,0E0,0E0,0E0],"parents":[2147483647,0,0,1,1,2,2,3,3,5,5,6,6,7,7,11,11,14,14,16,16],"right_children":[2,4,6,8,-1,10,12,14,-1,-1,-1,16,-1,-1,18,-1,20,-1,-1,-1,-1],"split_conditions":[5.820175E-1,1.5852919E0,3.875277E-1,-8.644497E-1,4.577965E-2,-9.617724E-2,2.0218425E0,-6.134512E-1,-6.6435724E-2,-4.740414E-2,3.199473E-2,-1.7150731E0,-5.430072E-3,-5.1321138E-2,-4.689193E-1,-7.7311473E-4,-1.116478E0,5.1840514E-2,6.9826185E-3,1.759906E-2,6.7551695E-2],"split_indices":[39,1,35,37,0,1,15,14,0,0,0,79,0,0,2,0,2,0,0,0,0],"split_type":[0,0,0,0,0,0,0,0,0,0,0,0,0,0,0,0,0,0,0,0,0],"sum_hessian":[5.9017372E1,2.981177E1,2.9205603E1,2.8489166E1,1.3226018E0,2.6827598E0,2.6522842E1,4.743699E0,2.3745468E1,1.1749539E0,1.5078058E0,2.5423944E1,1.0988982E0,2.1950772E0,2.548622E0,1.1323656E0,2.429158E1,1.384717E0,1.163905E0,1.8123387E0,2.247924E1],"tree_param":{"num_deleted":"0","num_feature":"84","num_nodes":"21","size_leaf_vector":"1"}},{"base_weights":[1.1365193E-1,-7.912599E-1,1.1254021E0,-9.901445E-1,5.5579055E-2,-1.4918419E-2,1.2084969E0,8.058781E-2,-1.228878E0,1.2591305E0,1.4463901E-2,-5.0146002E-2,8.772003E-1,1.4931194E-2,-6.560059E-2,6.4654015E-2,1.7990911E-2,5.814519E-2,2.8636472E-3],"categories":[],"categories_nodes":[],"categories_segments":[],"categories_sizes":[],"default_left":[0,0,0,0,0,0,0,0,0,0,0,0,0,0,0,0,0,0,0],"id":14,"left_children":[1,3,5,7,-1,-1,9,11,13,15,-1,-1,17,-1,-1,-1,-1,-1,-1],"loss_changes":[5.566485E1,1.3274521E1,3.7511597E0,7.6789227E0,0E0,0E0,9.052963E-1,6.356017E0,3.4786453E0,3.149376E-1,0E0,0E0,9.148855E-1,0E0,0E0,0E0,0E0,0E0,0E0],"parents":[2147483647,0,0,1,1,2,2,3,3,6,6,7,7,8,8,9,9,12,12],"right_children":[2,4,6,8,-1,-1,10,12,14,16,-1,-1,18,-1,-1,-1,-1,-1,-1],"split_conditions":[6.6258925E-1,1.1584549E0,-1.7987139E0,-8.644497E-1,5.5579055E-2,-1.4918419E-2,1.1731303E-1,-6.134512E-1,-1.6309085E0,2.391993E0,1.4463901E-2,-5.0146002E-2,6.45584E-1,1.4931194E-2,-6.560059E-2,6.4654015E-2,1.7990911E-2,5.814519E-2,2.8636472E-3],"split_indices":[35,13,78,37,0,0,7,14,28,52,0,0,74,0,0,0,0,0,0],"split_type":[0,0,0,0,0,0,0,0,0,0,0,0,0,0,0,0,0,0,0],"sum_hessian":[5.882708E1,3.1168144E1,2.7658936E1,2.8652988E1,2.5151553E0,1.3823675E0,2.6276567E1,5.344604E0,2.3308384E1,2.4554256E1,1.7223113E0,2.1547933E0,3.1898108E0,1.0692806E0,2.2239103E1,2.3239105E1,1.3151518E0,2.0553305E0,1.1344804E0],"tree_param":{"num_deleted":"0","num_feature":"84","num_nodes":"19","size_leaf_vector":"1"}},{"base_weights":[3.4214094E-2,-8.5135573E-1,9.5812213E-1,8.2806504E-1,-1.0761366E0,8.635321E-2,1.1079711E0,5.496004E-2,2.902295E-3,2.7336387E-2,-1.2145777E0,6.8773687E-1,-4.715464E-2,-7.488662E-3,1.1714978E0,1.1557199E-2,-6.448158E-2,4.911404E-2,-2.1264923E-3,1.2405596E0,-6.7582885E-3,1.7519228E-2,6.508148E-2],"categories":[],"categories_nodes":[],"categories_segments":[],"categories_sizes":[],"default_left":[0,0,0,0,0,0,0,0,0,0,0,0,0,0,0,0,0,0,0,0,0,0,0],"id":15,"left_children":[1,3,5,7,9,11,13,-1,-1,-1,15,17,-1,-1,19,-1,-1,-1,-1,21,-1,-1,-1],"loss_changes":[4.8451187E1,1.231308E1,3.6880226E0,7.9987264E-1,6.7571144E0,3.950178E0,2.143505E0,0E0,0E0,0E0,3.0431747E0,8.902545E-1,0E0,0E0,2.2937737E0,0E0,0E0,0E0,0E0,7.657852E-1,0E0,0E0,0E0],"parents":[2147483647,0,0,1,1,2,2,3,3,4,4,5,5,6,6,10,10,11,11,14,14,19,19],"right_children":[2,4,6,8,10,12,14,-1,-1,-1,16,18,-1,-1,20,-1,-1,-1,-1,22,-1,-1,-1],"split_conditions":[5.820175E-1,-1.0789405E0,5.8414763E-1,-7.265785E-1,-1.5468396E0,8.281471E-2,-1.6408906E0,5.496004E-2,2.902295E-3,2.7336387E-2,-8.02177E-1,6.664887E-1,-4.715464E-2,-7.488662E-3,2.0218425E0,1.1557199E-2,-6.448158E-2,4.911404E-2,-2.1264923E-3,-1.1260554E0,-6.7582885E-3,1.7519228E-2,6.508148E-2],"split_indices":[39,4,35,28,31,61,79,0,0,0,63,17,0,0,15,0,0,0,0,4,0,0,0],"split_type":[0,0,0,0,0,0,0,0,0,0,0,0,0,0,0,0,0,0,0,0,0,0,0],"sum_hessian":[5.722092E1,2.9256739E1,2.7964182E1,3.1367846E0,2.6119953E1,4.3329363E0,2.3631245E1,2.0037389E0,1.1330457E0,1.8212562E0,2.4298697E1,2.9446566E0,1.3882799E0,1.0709156E0,2.256033E1,1.0965601E0,2.3202137E1,1.852411E0,1.0922456E0,2.1475845E1,1.0844834E0,1.8112931E0,1.9664553E1],"tree_param":{"num_deleted":"0","num_feature":"84","num_nodes":"23","size_leaf_vector":"1"}},{"base_weights":[2.8536364E-2,-8.4581304E-1,9.882775E-1,4.7716938E-2,-1.0784926E0,1.046194E0,-1.1715248E-2,-1.1989715E0,3.9310988E-2,1.1048979E0,-7.962662E-3,-6.3706405E-2,1.0913673E-2,1.1678021E0,-8.01641E-3,1.6998067E-2,6.1099302E-2],"categories":[],"categories_nodes":[],"categories_segments":[],"categories_sizes":[],"default_left":[0,0,0,0,0,0,0,0,0,0,0,0,0,0,0,0,0],"id":16,"left_children":[1,3,5,-1,7,9,-1,11,-1,13,-1,-1,-1,15,-1,-1,-1],"loss_changes":[4.607503E1,1.3071096E1,2.0975628E0,0E0,6.7675934E0,1.9564819E0,0E0,2.9144173E0,0E0,2.1067982E0,0E0,0E0,0E0,6.206131E-1,0E0,0E0,0E0],"parents":[2147483647,0,0,1,1,2,2,4,4,5,5,7,7,9,9,13,13],"right_children":[2,4,6,-1,8,10,-1,12,-1,14,-1,-1,-1,16,-1,-1,-1],"split_conditions":[7.241431E-1,-1.14168E0,1.3144435E0,4.7716938E-2,1.430492E0,1.3185219E0,-1.1715248E-2,1.7179234E0,3.9310988E-2,1.9851693E0,-7.962662E-3,-6.3706405E-2,1.0913673E-2,-1.116478E0,-8.01641E-3,1.6998067E-2,6.1099302E-2],"split_indices":[35,83,9,0,75,28,0,79,0,73,0,0,0,2,0,0,0],"split_type":[0,0,0,0,0,0,0,0,0,0,0,0,0,0,0,0,0],"sum_hessian":[5.291072E1,2.7749187E1,2.5161531E1,2.8211944E0,2.4927994E1,2.4161238E1,1.000295E0,2.3750498E1,1.1774958E0,2.311879E1,1.042448E0,2.2650331E1,1.1001666E0,2.2097168E1,1.0216205E0,1.8043237E0,2.0292845E1],"tree_param":{"num_deleted":"0","num_feature":"84","num_nodes":"17","size_leaf_vector":"1"}},{"base_weights":[-2.1543166E-2,-9.309593E-1,7.8100604E-1,-1.0751525E0,3.1651326E-2,1.7340511E-1,1.1484292E0,1.5910452E-2,-1.1545112E0,-9.7034657E-1,8.057461E-1,6.236269E-2,-1.1256005E-2,-9.085739E-3,-6.2234998E-2,2.4323093E-3,-6.394719E-2,-8.266071E-3,9.760207E-1,7.8430056E-4,5.769926E-2],"categories":[],"categories_nodes":[],"categories_segments":[],"categories_sizes":[],"default_left":[0,0,0,0,0,0,0,0,0,0,0,0,0,0,0,0,0,0,0,0,0],"id":17,"left_children":[1,3,5,7,-1,9,11,-1,13,15,17,-1,-1,-1,-1,-1,-1,-1,19,-1,-1],"loss_changes":[3.8774426E1,6.2946606E0,6.104452E0,2.9286823E0,0E0,9.329233E0,2.6450863E0,0E0,1.715517E0,1.5279918E0,1.5100832E0,0E0,0E0,0E0,0E0,0E0,0E0,0E0,1.1927342E0,0E0,0E0],"parents":[2147483647,0,0,1,1,2,2,3,3,5,5,6,6,8,8,9,9,10,10,18,18],"right_children":[2,4,6,8,-1,10,12,-1,14,16,18,-1,-1,-1,-1,-1,-1,-1,20,-1,-1],"split_conditions":[3.5155612E-1,2.0602248E0,1.00005E0,-1.6838932E0,3.1651326E-2,7.9829055E-1,8.288089E-1,1.5910452E-2,-1.5038567E0,-3.0538452E-1,-1.7987139E0,6.236269E-2,-1.1256005E-2,-9.085739E-3,-6.2234998E-2,2.4323093E-3,-6.394719E-2,-8.266071E-3,-4.2243022E-1,7.8430056E-4,5.769926E-2],"split_indices":[39,73,35,79,0,75,51,0,28,10,78,0,0,0,0,0,0,0,26,0,0],"split_type":[0,0,0,0,0,0,0,0,0,0,0,0,0,0,0,0,0,0,0,0,0],"sum_hessian":[5.1130272E1,2.3894264E1,2.723601E1,2.2163439E1,1.7308254E0,1.0818162E1,1.6417847E1,1.0321105E0,2.1131327E1,3.661274E0,7.156888E0,1.540167E1,1.0161767E0,2.0486755E0,1.9082651E1,1.046867E0,2.6144068E0,1.0720623E0,6.084826E0,1.121439E0,4.963387E0],"tree_param":{"num_deleted":"0","num_feature":"84","num_nodes":"21","size_leaf_vector":"1"}},{"base_weights":[-3.0931212E-2,-8.434291E-1,8.845571E-1,4.080826E-2,-1.0150695E0,-1.4982094E-2,9.9338377E-1,-4.8491307E-2,-1.1398805E0,-1.5611474E-2,1.0905865E0,4.557761E-2,-4.2749584E-2,-4.7621536E-3,-6.1361026E-2,-9.407612E-3,1.1641519E0,6.021259E-2,1.4133836E-2],"categories":[],"categories_nodes":[],"categories_segments":[],"categories_sizes":[],"default_left":[0,0,0,0,0,0,0,0,0,0,0,0,0,0,0,0,0,0,0],"id":18,"left_children":[1,3,5,-1,7,-1,9,11,13,-1,15,-1,-1,-1,-1,-1,17,-1,-1],"loss_changes":[3.945285E1,8.827469E0,3.5137825E0,0E0,3.0686626E0,0E0,3.2704926E0,3.8809268E0,1.9714794E0,0E0,2.2613144E0,0E0,0E0,0E0,0E0,0E0,3.9014244E-1,0E0,0E0],"parents":[2147483647,0,0,1,1,2,2,4,4,6,6,7,7,8,8,10,10,16,16],"right_children":[2,4,6,-1,8,-1,10,12,14,-1,16,-1,-1,-1,-1,-1,18,-1,-1],"split_conditions":[6.6258925E-1,-1.0789405E0,1.4516307E-1,4.080826E-2,-1.1932944E0,-1.4982094E-2,-1.7987139E0,-8.96893E-1,-1.5038567E0,-1.5611474E-2,-1.6408906E0,4.557761E-2,-4.2749584E-2,-4.7621536E-3,-6.1361026E-2,-9.407612E-3,2.391993E0,6.021259E-2,1.4133836E-2],"split_indices":[35,4,41,0,31,0,78,53,28,0,79,0,0,0,0,0,52,0,0],"split_type":[0,0,0,0,0,0,0,0,0,0,0,0,0,0,0,0,0,0,0],"sum_hessian":[5.103698E1,2.708113E1,2.395585E1,2.186334E0,2.4894796E1,1.8686554E0,2.2087194E1,3.0057545E0,2.1889042E1,1.377166E0,2.0710028E1,1.3127837E0,1.6929706E0,1.8501893E0,2.0038853E1,1.041891E0,1.9668139E1,1.8462088E1,1.2060503E0],"tree_param":{"num_deleted":"0","num_feature":"84","num_nodes":"19","size_leaf_vector":"1"}},{"base_weights":[8.847725E-2,-7.067878E-1,9.9265504E-1,6.6533333E-1,-8.5510373E-1,-8.381276E-3,1.0654172E0,3.4855902E-3,4.530793E-2,8.974055E-3,-1.1128241E0,1.1293124E0,2.864337E-3,-4.4845708E-2,5.542799E-1,-6.0360033E-2,1.6901936E-2,1.5218388E-3,5.9103716E-2,6.361896E-2,-4.3191E-2],"categories":[],"categories_nodes":[],"categories_segments":[],"categories_sizes":[],"default_left":[0,0,0,0,0,0,0,0,0,0,0,0,0,0,0,0,0,0,0,0,0],"id":19,"left_children":[1,3,5,7,9,-1,11,-1,-1,13,15,17,-1,-1,19,-1,-1,-1,-1,-1,-1],"loss_changes":[3.879466E1,6.4237785E0,2.306631E0,4.2005897E-1,5.889208E0,0E0,1.4719124E0,0E0,0E0,3.98335E0,3.193676E0,1.2615681E0,0E0,0E0,6.214697E0,0E0,0E0,0E0,0E0,0E0,0E0],"parents":[2147483647,0,0,1,1,2,2,3,3,4,4,6,6,9,9,10,10,11,11,14,14],"right_children":[2,4,6,8,10,-1,12,-1,-1,14,16,18,-1,-1,20,-1,-1,-1,-1,-1,-1],"split_conditions":[6.048003E-1,-1.6851202E0,-8.0964364E-2,-1.0361328E0,-8.074874E-1,-8.381276E-3,1.703734E0,3.4855902E-3,4.530793E-2,-1.7898917E-1,1.9266242E0,3.710618E-1,2.864337E-3,-4.4845708E-2,-1.4604474E-2,-6.0360033E-2,1.6901936E-2,1.5218388E-3,5.9103716E-2,6.361896E-2,-4.3191E-2],"split_indices":[39,51,46,2,37,0,48,0,0,35,2,35,0,0,17,0,0,0,0,0,0],"split_type":[0,0,0,0,0,0,0,0,0,0,0,0,0,0,0,0,0,0,0,0,0],"sum_hessian":[5.197612E1,2.7769712E1,2.4206406E1,2.3688405E0,2.5400873E1,1.3514917E0,2.2854914E1,1.0532811E0,1.3155594E0,6.0573006E0,1.9343573E1,2.1379667E1,1.4752454E0,2.033824E0,4.0234766E0,1.8319836E1,1.0237356E0,1.0517468E0,2.032792E1,2.73917E0,1.2843066E0],"tree_param":{"num_deleted":"0","num_feature":"84","num_nodes":"21","size_leaf_vector":"1"}},{"base_weights":[-5.7090924E-4,-8.188682E-1,8.848717E-1,-1.1103253E0,2.2870985E-1,-1.692283E-2,9.602284E-1,-5.9991803E-2,1.682393E-2,8.14636E-1,-4.453103E-2,-1.0523486E-2,1.0326172E0,1.9785026E-3,5.5297382E-2,1.1265321E0,1.1221925E-1,5.832025E-2,1.190097E-2,3.5258483E-2,-2.6441554E-2],"categories":[],"categories_nodes":[],"categories_segments":[],"categories_sizes":[],"default_left":[0,0,0,0,0,0,0,0,0,0,0,0,0,0,0,0,0,0,0,0,0],"id":20,"left_children":[1,3,5,7,9,-1,11,-1,-1,13,-1,-1,15,-1,-1,17,19,-1,-1,-1,-1],"loss_changes":[3.7509956E1,8.468555E0,2.617199E0,3.1517124E0,5.110054E0,0E0,2.2243423E0,0E0,0E0,1.0649612E0,0E0,0E0,1.8161259E0,0E0,0E0,4.409008E-1,1.5860025E0,0E0,0E0,0E0,0E0],"parents":[2147483647,0,0,1,1,2,2,3,3,4,4,6,6,9,9,12,12,15,15,16,16],"right_children":[2,4,6,8,10,-1,12,-1,-1,14,-1,-1,16,-1,-1,18,20,-1,-1,-1,-1],"split_conditions":[5.820175E-1,8.672652E-1,-1.765209E0,1.2568762E0,-2.02661E-1,-1.692283E-2,-1.9472075E0,-5.9991803E-2,1.682393E-2,-9.490657E-2,-4.453103E-2,-1.0523486E-2,7.5364536E-1,1.9785026E-3,5.5297382E-2,8.4337544E-1,1.2986412E0,5.832025E-2,1.190097E-2,3.5258483E-2,-2.6441554E-2],"split_indices":[39,12,12,75,54,0,1,0,0,1,0,0,26,0,0,45,41,0,0,0,0],"split_type":[0,0,0,0,0,0,0,0,0,0,0,0,0,0,0,0,0,0,0,0,0],"sum_hessian":[4.976957E1,2.5904583E1,2.3864986E1,2.021928E1,5.6853027E0,1.1821849E0,2.26828E1,1.9201992E1,1.0172875E0,3.9105124E0,1.7747905E0,1.2098111E0,2.147299E1,1.3785542E0,2.531958E0,1.9281588E1,2.1914017E0,1.8154142E1,1.1274467E0,1.0864496E0,1.1049521E0],"tree_param":{"num_deleted":"0","num_feature":"84","num_nodes":"21","size_leaf_vector":"1"}},{"base_weights":[1.16130725E-1,-8.71913E-1,7.2098345E-1,3.3769876E-2,-1.0597681E0,-4.4170883E-2,8.2468176E-1,-5.827054E-2,1.6803412E-2,9.069132E-1,-1.5412505E-2,3.3184925E-1,1.0334585E0,4.8550732E-2,-2.2005325E-2,-2.7770745E-3,5.4707296E-2],"categories":[],"categories_nodes":[],"categories_segments":[],"categories_sizes":[],"default_left":[0,0,0,0,0,0,0,0,0,0,0,0,0,0,0,0,0],"id":21,"left_children":[1,3,5,-1,7,-1,9,-1,-1,11,-1,13,15,-1,-1,-1,-1],"loss_changes":[3.0175129E1,6.304187E0,5.9217587E0,0E0,2.9771824E0,0E0,3.0591927E0,0E0,0E0,1.6998177E0,0E0,3.6522536E0,1.5500793E0,0E0,0E0,0E0,0E0],"parents":[2147483647,0,0,1,1,2,2,4,4,6,6,9,9,11,11,12,12],"right_children":[2,4,6,-1,8,-1,10,-1,-1,12,-1,14,16,-1,-1,-1,-1],"split_conditions":[2.5207117E-1,-1.5031083E0,-4.9576837E-1,3.3769876E-2,1.7179234E0,-4.4170883E-2,1.2122416E0,-5.827054E-2,1.6803412E-2,5.820175E-1,-1.5412505E-2,-8.732456E-1,-1.6645219E0,4.8550732E-2,-2.2005325E-2,-2.7770745E-3,5.4707296E-2],"split_indices":[35,28,5,0,80,0,80,0,0,39,0,53,80,0,0,0,0],"split_type":[0,0,0,0,0,0,0,0,0,0,0,0,0,0,0,0,0],"sum_hessian":[4.8440193E1,1.8225994E1,3.02142E1,1.6922325E0,1.6533762E1,1.3778133E0,2.8836386E1,1.5523928E1,1.0098333E0,2.7070993E1,1.7653924E0,5.5359864E0,2.1535007E1,2.8874044E0,2.6485817E0,1.1412239E0,2.0393784E1],"tree_param":{"num_deleted":"0","num_feature":"84","num_nodes":"17","size_leaf_vector":"1"}},{"base_weights":[1.4195166E-2,-9.111064E-1,7.064668E-1,-4.6049602E-2,-5.791666E-2,6.1095268E-2,9.743893E-1,5.0004184E-2,-6.0129553E-1,5.52126E-1,-6.9750184E-1,1.1204493E0,1.20137066E-1,-4.44179E-2,7.995106E-3,-1.3230189E-2,4.5550916E-2,4.4239615E-3,-4.919472E-2,6.956509E-3,5.9122335E-2,2.6682815E-2,-2.230873E-2,4.002366E-2,-3.877018E-2],"categories":[],"categories_nodes":[],"categories_segments":[],"categories_sizes":[],"default_left":[0,0,0,0,0,0,0,0,0,0,0,0,0,0,0,0,0,0,0,0,0,0,0,0,0],"id":22,"left_children":[1,3,5,7,-1,9,11,-1,13,15,17,19,21,-1,-1,23,-1,-1,-1,-1,-1,-1,-1,-1,-1],"loss_changes":[3.1623194E1,4.4666386E0,4.8214464E0,3.9349089E0,0E0,3.867172E0,2.3459263E0,0E0,1.0977384E0,1.2767258E0,1.013345E0,8.610878E-1,1.1801995E0,0E0,0E0,2.7330177E0,0E0,0E0,0E0,0E0,0E0,0E0,0E0,0E0,0E0],"parents":[2147483647,0,0,1,1,2,2,3,3,5,5,6,6,8,8,9,9,10,10,11,11,12,12,15,15],"right_children":[2,4,6,8,-1,10,12,-1,14,16,18,20,22,-1,-1,24,-1,-1,-1,-1,-1,-1,-1,-1,-1],"split_conditions":[2.5207117E-1,0E0,7.241431E-1,-8.644497E-1,-5.791666E-2,1.1103238E-1,9.595952E-2,5.0004184E-2,5.55501E-1,-1.9895545E-1,4.1277227E-1,-3.2830632E-1,-4.4886997E-1,-4.44179E-2,7.995106E-3,-8.917249E-1,4.5550916E-2,4.4239615E-3,-4.919472E-2,6.956509E-3,5.9122335E-2,2.6682815E-2,-2.230873E-2,4.002366E-2,-3.877018E-2],"split_indices":[35,70,35,37,0,38,83,0,12,62,35,5,12,0,0,12,0,0,0,0,0,0,0,0,0],"split_type":[0,0,0,0,0,0,0,0,0,0,0,0,0,0,0,0,0,0,0,0,0,0,0,0,0],"sum_hessian":[4.736319E1,2.0134705E1,2.7228485E1,4.7390013E0,1.5395702E1,8.3479595E0,1.8880526E1,1.3653688E0,3.3736322E0,5.232925E0,3.115034E0,1.5857584E1,3.0229418E0,2.3284683E0,1.0451639E0,2.405975E0,2.82695E0,1.0164702E0,2.0985637E0,1.1350884E0,1.4722495E1,1.7804935E0,1.2424483E0,1.139347E0,1.266628E0],"tree_param":{"num_deleted":"0","num_feature":"84","num_nodes":"25","size_leaf_vector":"1"}},{"base_weights":[-4.1748276E-3,-7.5451756E-1,7.5964063E-1,7.3203915E-1,-9.909176E-1,1.7057316E-1,1.0666152E0,4.957212E-2,5.3823565E-4,1.8771011E-2,-1.078967E0,4.7474635E-1,-5.3985156E-2,5.830398E-2,2.9530353E-3,1.4865025E-2,-5.851077E-2,-9.699684E-2,7.068532E-1,5.802429E-3,-1.2172457E-2,-4.277939E-3,4.7434445E-2],"categories":[],"categories_nodes":[],"categories_segments":[],"categories_sizes":[],"default_left":[0,0,0,0,0,0,0,0,0,0,0,0,0,0,0,0,0,0,0,0,0,0,0],"id":23,"left_children":[1,3,5,7,9,11,13,-1,-1,-1,15,17,-1,-1,-1,-1,-1,19,21,-1,-1,-1,-1],"loss_changes":[2.7870043E1,9.344976E0,4.176136E0,7.265947E-1,3.0021248E0,4.105268E0,1.4998665E0,0E0,0E0,0E0,2.927168E0,1.169086E0,0E0,0E0,0E0,0E0,0E0,1.3040026E-1,1.2346284E0,0E0,0E0,0E0,0E0],"parents":[2147483647,0,0,1,1,2,2,3,3,4,4,5,5,6,6,10,10,11,11,17,17,18,18],"right_children":[2,4,6,8,10,12,14,-1,-1,-1,16,18,-1,-1,-1,-1,-1,20,22,-1,-1,-1,-1],"split_conditions":[5.820175E-1,-1.0789405E0,9.9224085E-1,-7.265785E-1,-9.469097E-1,7.848976E-1,1.2894444E0,4.957212E-2,5.3823565E-4,1.8771011E-2,-1.4381549E0,3.875277E-1,-5.3985156E-2,5.830398E-2,2.9530353E-3,1.4865025E-2,-5.851077E-2,2.5274694E-1,-8.984798E-2,5.802429E-3,-1.2172457E-2,-4.277939E-3,4.7434445E-2],"split_indices":[39,4,35,28,37,62,13,0,0,0,62,35,0,0,0,0,0,35,4,0,0,0,0],"split_type":[0,0,0,0,0,0,0,0,0,0,0,0,0,0,0,0,0,0,0,0,0,0,0],"sum_hessian":[4.6628277E1,2.3527723E1,2.3100552E1,2.940478E0,2.0587246E1,8.446958E0,1.4653594E1,1.8871886E0,1.0532895E0,1.0487738E0,1.9538471E1,7.292975E0,1.1539831E0,1.3193786E1,1.4598087E0,1.0744694E0,1.8464003E1,2.2738814E0,5.0190935E0,1.0109073E0,1.262974E0,1.3247049E0,3.6943886E0],"tree_param":{"num_deleted":"0","num_feature":"84","num_nodes":"23","size_leaf_vector":"1"}},{"base_weights":[2.9233634E-2,-6.71981E-1,7.2783804E-1,7.564971E-1,-8.964115E-1,8.664975E-1,-1.864931E-1,3.7329034E-3,4.8480783E-2,-1.3452733E-1,-1.0537603E0,9.5233065E-1,-1.988647E-2,-5.3941157E-2,3.937814E-2,-4.103766E-2,3.6872905E-2,1.41936755E-2,-5.7923745E-2,2.5428212E-1,1.0650187E0,4.085738E-2,-3.428666E-2,9.923972E-3,5.551613E-2],"categories":[],"categories_nodes":[],"categories_segments":[],"categories_sizes":[],"default_left":[0,0,0,0,0,0,0,0,0,0,0,0,0,0,0,0,0,0,0,0,0,0,0,0,0],"id":24,"left_children":[1,3,5,7,9,11,13,-1,-1,15,17,19,-1,-1,-1,-1,-1,-1,-1,21,23,-1,-1,-1,-1],"loss_changes":[2.3954208E1,8.508821E0,3.2645493E0,4.8834348E-1,2.443699E0,2.7041073E0,4.3661623E0,0E0,0E0,3.500238E0,2.8121204E0,1.330843E0,0E0,0E0,0E0,0E0,0E0,0E0,0E0,2.7528195E0,4.5554733E-1,0E0,0E0,0E0,0E0],"parents":[2147483647,0,0,1,1,2,2,3,3,4,4,5,5,6,6,9,9,10,10,11,11,19,19,20,20],"right_children":[2,4,6,8,10,12,14,-1,-1,16,18,20,-1,-1,-1,-1,-1,-1,-1,22,24,-1,-1,-1,-1],"split_conditions":[5.820175E-1,-1.6851202E0,-2.7865147E-2,-1.8709247E0,0E0,1.8098419E0,1.7417389E0,3.7329034E-3,4.8480783E-2,4.783015E-1,-8.0216813E-1,-1.123001E0,-1.988647E-2,-5.3941157E-2,3.937814E-2,-4.103766E-2,3.6872905E-2,1.41936755E-2,-5.7923745E-2,1.1335508E0,-1.0436381E0,4.085738E-2,-3.428666E-2,9.923972E-3,5.551613E-2],"split_indices":[39,51,20,74,70,62,2,0,0,9,63,77,0,0,0,0,0,0,0,36,62,0,0,0,0],"split_type":[0,0,0,0,0,0,0,0,0,0,0,0,0,0,0,0,0,0,0,0,0,0,0,0,0],"sum_hessian":[4.6900536E1,2.342556E1,2.3474976E1,2.858805E0,2.0566755E1,2.042918E1,3.0457952E0,1.0023282E0,1.8564768E0,3.838016E0,1.6728739E1,1.9361372E1,1.0678077E0,1.533449E0,1.5123461E0,2.180658E0,1.6573579E0,1.0902947E0,1.5638444E1,3.1437638E0,1.621761E1,2.0481026E0,1.0956613E0,1.073107E0,1.5144502E1],"tree_param":{"num_deleted":"0","num_feature":"84","num_nodes":"25","size_leaf_vector":"1"}}]},"name":"gbtree"},"learner_model_param":{"base_score":"[5E-1]","boost_from_average":"1","num_class":"0","num_feature":"84","num_target":"1"},"objective":{"name":"binary:logistic","reg_loss_param":{"scale_pos_weight":"2.8125"}}},"version":[3,2,0]}