{"learner":{"attributes":{"best_iteration":"1","best_score":"0.6928466680354641"},"feature_names":["at_round_number_flag","ath_distance","atr_14","atr_14_norm","bb_lower","bb_pct_b","bb_squeeze_flag","bb_upper","bb_width","cmf_20","cvd_approx","distance_to_round_pct","doge_btc_corr_12h","doge_btc_corr_24h","doge_btc_corr_7d","dogebtc_mom_24h","dogebtc_mom_48h","dogebtc_mom_6h","ema_14","ema_200","ema_21","ema_50","ema_7","funding_available","funding_extreme_long","funding_extreme_short","funding_rate","funding_rate_zscore","hl_range","htf_1d_return","htf_1d_trend","htf_4h_bb_pctb","htf_4h_rsi","htf_4h_trend","ichimoku_cloud_position","log_ret_1","log_ret_12","log_ret_168","log_ret_24","log_ret_3","log_ret_48","log_ret_6","macd_hist","macd_hist_direction","macd_line","macd_signal","mom_12","mom_24","mom_48","mom_6","nearest_round_level","obv","obv_ema_ratio","price_vs_ema200","price_vs_vwap","regime_encoded","regime_is_decoupled","regime_is_ranging_high","regime_is_ranging_low","regime_is_trending_bear","regime_is_trending_bull","rolling_kurt_24","rolling_skew_24","rsi_14","rsi_overbought","rsi_oversold","sma_200","sma_21","sma_50","sma_7","stoch_crossover_flag","stoch_d","stoch_k","vol_12","vol_168","vol_24","vol_48","vol_6","volume_ma_20","volume_ma_ratio","volume_ratio","volume_spike_flag","volume_spike_magnitude","vwap"],"feature_types":[],"gradient_booster":{"model":{"cats":{"enc":[],"feature_segments":[],"sorted_idx":[]},"gbtree_model_param":{"num_parallel_tree":"1","num_trees":"22"},"iteration_indptr":[0,1,2,3,4,5,6,7,8,9,10,11,12,13,14,15,16,17,18,19,20,21,22],"tree_info":[0,0,0,0,0,0,0,0,0,0,0,0,0,0,0,0,0,0,0,0,0,0],"trees":[{"base_weights":[-2.8744744E-2,1.1516563E-1,-1.5164867E-1,3.6353808E-2,4.625413E-1,-4.1317186E-1,-3.760746E-2,1.7736183E-1,-1.6681412E-1,8.2418233E-1,1.9967306E-1,-7.199162E-1,-1.178329E-1,2.397742E-2,-7.110238E-1,9.0105034E-2,6.956653E-1,-9.2952526E-1,-6.981369E-2,1.0384235E0,2.6137736E-1,-1.280267E-1,6.5341336E-1,-2.6549084E-2,-9.081867E-1,9.473499E-2,-7.734858E-1,3.0028808E-1,-1.0128394E-1,-1.1154082E0,-2.1718994E-1,1.272597E-3,3.460838E-2,4.163747E-2,-1.9821992E-2,1.0225061E-2,-6.807541E-2,4.4650014E-2,-7.349773E-3,7.403255E-2,2.4686864E-2,-1.79727E-2,4.3053534E-2,3.355543E-2,-2.1270981E-2,5.5736393E-2,-2.7873695E-3,5.311021E-2,-1.9759815E-2,3.8645588E-2,-4.9799394E-2,1.7118521E-2,-3.979751E-2,-4.686631E-2,5.013889E-2,4.7746193E-2,8.500465E-3,-7.5963945E-3,3.2310273E-2,9.2747025E-3,-6.526068E-2,1.3068869E-2,-5.78022E-2],"categories":[],"categories_nodes":[],"categories_segments":[],"categories_sizes":[],"default_left":[0,0,0,0,0,0,0,0,0,0,0,0,0,0,0,0,0,0,0,0,0,0,0,0,0,0,0,0,0,0,0,0,0,0,0,0,0,0,0,0,0,0,0,0,0,0,0,0,0,0,0,0,0,0,0,0,0,0,0,0,0,0,0],"id":0,"left_children":[1,3,5,7,9,11,13,15,17,19,21,23,25,27,29,31,33,35,37,39,41,43,45,47,49,51,53,55,57,59,61,-1,-1,-1,-1,-1,-1,-1,-1,-1,-1,-1,-1,-1,-1,-1,-1,-1,-1,-1,-1,-1,-1,-1,-1,-1,-1,-1,-1,-1,-1,-1,-1],"loss_changes":[1.5274443E1,1.087697E1,1.3873377E1,9.352176E0,6.8224335E0,1.2716747E1,1.3511361E1,8.646751E0,9.836812E0,3.4202538E0,6.608334E0,8.998825E0,1.0273546E1,1.0382082E1,5.2087145E0,6.4431E0,4.4621773E0,7.6361847E0,9.03511E0,4.529455E0,3.9498932E0,6.5395613E0,6.1357613E0,6.7575016E0,8.788952E0,1.2659489E1,6.1864614E0,7.815675E0,7.9169307E0,3.8879356E0,6.3815455E0,0E0,0E0,0E0,0E0,0E0,0E0,0E0,0E0,0E0,0E0,0E0,0E0,0E0,0E0,0E0,0E0,0E0,0E0,0E0,0E0,0E0,0E0,0E0,0E0,0E0,0E0,0E0,0E0,0E0,0E0,0E0,0E0],"parents":[2147483647,0,0,1,1,2,2,3,3,4,4,5,5,6,6,7,7,8,8,9,9,10,10,11,11,12,12,13,13,14,14,15,15,16,16,17,17,18,18,19,19,20,20,21,21,22,22,23,23,24,24,25,25,26,26,27,27,28,28,29,29,30,30],"right_children":[2,4,6,8,10,12,14,16,18,20,22,24,26,28,30,32,34,36,38,40,42,44,46,48,50,52,54,56,58,60,62,-1,-1,-1,-1,-1,-1,-1,-1,-1,-1,-1,-1,-1,-1,-1,-1,-1,-1,-1,-1,-1,-1,-1,-1,-1,-1,-1,-1,-1,-1,-1,-1],"split_conditions":[-2.2171078E-2,6.666582E-1,-5.476149E-1,-1.342806E-1,1.1928688E0,-6.2975526E-1,1.585265E0,1.3116711E-1,-7.550714E-2,-2.6158305E-2,1.2249033E0,-1.0209341E0,2.032245E0,5.77125E-2,4.3387118E-1,1.1052563E0,1.1856099E0,-1.4531556E0,-9.8366255E-1,-1.6399504E-1,6.1473224E-2,-2.0280749E-1,1.1328275E0,-5.1768446E-1,-6.0217786E-1,8.6873746E-1,1.9636866E0,-7.8532237E-1,2.182467E0,6.377301E-1,1.2419189E0,1.272597E-3,3.460838E-2,4.163747E-2,-1.9821992E-2,1.0225061E-2,-6.807541E-2,4.4650014E-2,-7.349773E-3,7.403255E-2,2.4686864E-2,-1.79727E-2,4.3053534E-2,3.355543E-2,-2.1270981E-2,5.5736393E-2,-2.7873695E-3,5.311021E-2,-1.9759815E-2,3.8645588E-2,-4.9799394E-2,1.7118521E-2,-3.979751E-2,-4.686631E-2,5.013889E-2,4.7746193E-2,8.500465E-3,-7.5963945E-3,3.2310273E-2,9.2747025E-3,-6.526068E-2,1.3068869E-2,-5.78022E-2],"split_indices":[39,37,8,32,37,66,7,52,14,54,51,8,70,54,62,13,13,14,27,28,41,51,6,79,42,27,66,52,32,2,42,0,0,0,0,0,0,0,0,0,0,0,0,0,0,0,0,0,0,0,0,0,0,0,0,0,0,0,0,0,0,0,0],"split_type":[0,0,0,0,0,0,0,0,0,0,0,0,0,0,0,0,0,0,0,0,0,0,0,0,0,0,0,0,0,0,0,0,0,0,0,0,0,0,0,0,0,0,0,0,0,0,0,0,0,0,0,0,0,0,0,0,0,0,0,0,0,0,0],"sum_hessian":[8.6160236E2,3.9691293E2,4.6468942E2,3.2441504E2,7.249791E1,1.403078E2,3.2438162E2,1.9157799E2,1.3283705E2,2.9616991E1,4.288092E1,6.8119774E1,7.218802E1,2.9808566E2,2.6295961E1,1.649777E2,2.6600279E1,1.4019499E1,1.1881755E2,2.0839136E1,8.777855E0,2.531546E1,1.756546E1,1.479039E1,5.3329388E1,5.5160168E1,1.7027855E1,9.2545265E1,2.0554039E2,1.376532E1,1.2530641E1,1.4992061E2,1.5057103E1,2.3844707E1,2.755571E0,4.0125346E0,1.0006964E1,8.033426E0,1.1078412E2,1.0552924E1,1.0286212E1,4.5097494E0,4.268106E0,6.5250697E0,1.879039E1,1.029596E1,7.2694983E0,3.2653203E0,1.1525069E1,2.2597492E0,5.1069637E1,4.364206E1,1.15181055E1,1.6022284E1,1.005571E0,1.4309888E1,7.8235374E1,1.9324443E2,1.229596E1,1.755571E0,1.2009749E1,8.777855E0,3.7527854E0],"tree_param":{"num_deleted":"0","num_feature":"84","num_nodes":"63","size_leaf_vector":"1"}},{"base_weights":[2.0695047E-2,1.9176812E-1,-6.831677E-2,3.0117553E-1,-8.014466E-2,1.1105957E-1,-2.1090259E-1,-1.2592566E-1,3.9619663E-1,-2.373331E-1,5.7614386E-1,-8.203142E-1,1.6009998E-1,-7.144151E-1,-1.3376151E-1,3.1394628E-1,-6.850856E-1,3.720009E-2,4.9680948E-1,5.155348E-1,-4.45427E-1,-5.0142724E-2,8.573405E-1,6.6858184E-1,-1.1603689E0,2.3610368E-1,-3.8428247E-1,-1.1408552E0,-2.9945585E-1,-2.3060046E-1,2.3229812E-1,-5.5272877E-2,3.163428E-2,-5.8216404E-2,3.3442283E-3,1.5834376E-2,-5.1834967E-2,5.6010693E-2,2.1106387E-2,-6.2962405E-2,4.1588336E-2,-5.9853584E-2,-1.23403305E-2,6.7787066E-2,7.510712E-4,1.21514306E-4,5.001533E-2,2.5232717E-2,-6.917694E-2,8.230607E-3,5.704611E-2,5.3309584E-3,-5.7344526E-2,-6.2130906E-2,1.1179431E-2,3.921322E-2,-3.171345E-2,3.139203E-2,-1.4520578E-2,2.6317466E-2,-6.872414E-3],"categories":[],"categories_nodes":[],"categories_segments":[],"categories_sizes":[],"default_left":[0,0,0,0,0,0,0,0,0,0,0,0,0,0,0,0,0,0,0,0,0,0,0,0,0,0,0,0,0,0,0,0,0,0,0,0,0,0,0,0,0,0,0,0,0,0,0,0,0,0,0,0,0,0,0,0,0,0,0,0,0],"id":1,"left_children":[1,3,5,7,9,11,13,15,17,19,21,23,25,27,29,31,33,35,37,39,41,-1,43,45,47,49,51,53,55,57,59,-1,-1,-1,-1,-1,-1,-1,-1,-1,-1,-1,-1,-1,-1,-1,-1,-1,-1,-1,-1,-1,-1,-1,-1,-1,-1,-1,-1,-1,-1],"loss_changes":[1.31317625E1,8.803353E0,1.4535609E1,8.598663E0,8.952993E0,1.1638583E1,1.2196403E1,9.83066E0,6.2140236E0,1.1142398E1,8.321554E0,7.2389297E0,1.0027894E1,7.057333E0,9.825115E0,1.0909113E1,6.394327E0,1.1990033E1,5.7982216E0,9.773211E0,7.931797E0,0E0,6.194603E0,6.6224635E-1,4.69547E0,1.3484952E1,1.1279945E1,3.091652E0,8.678654E0,1.1400401E1,6.3962913E0,0E0,0E0,0E0,0E0,0E0,0E0,0E0,0E0,0E0,0E0,0E0,0E0,0E0,0E0,0E0,0E0,0E0,0E0,0E0,0E0,0E0,0E0,0E0,0E0,0E0,0E0,0E0,0E0,0E0,0E0],"parents":[2147483647,0,0,1,1,2,2,3,3,4,4,5,5,6,6,7,7,8,8,9,9,10,10,11,11,12,12,13,13,14,14,15,15,16,16,17,17,18,18,19,19,20,20,22,22,23,23,24,24,25,25,26,26,27,27,28,28,29,29,30,30],"right_children":[2,4,6,8,10,12,14,16,18,20,22,24,26,28,30,32,34,36,38,40,42,-1,44,46,48,50,52,54,56,58,60,-1,-1,-1,-1,-1,-1,-1,-1,-1,-1,-1,-1,-1,-1,-1,-1,-1,-1,-1,-1,-1,-1,-1,-1,-1,-1,-1,-1,-1,-1],"split_conditions":[-2.2591674E-1,4.5924652E-1,-5.154409E-2,-6.5998226E-1,2.23523E-1,-1.9824202E0,-6.873389E-1,-9.1934633E-1,-1.2999691E0,-1.0269613E0,-2.3632109E-1,-2.0981728E-1,1.2183704E0,2.1871175E-1,9.62506E-1,-7.3821807E-1,-7.2073466E-1,1.2372226E0,-1.5985817E0,-2.650147E0,-3.1778648E-1,-5.0142724E-2,-4.3384296E-1,-1.9837279E0,-9.0509844E-1,1.1360536E0,8.874744E-2,8.0966145E-1,-8.517529E-2,-4.180971E-1,4.469214E-1,-5.5272877E-2,3.163428E-2,-5.8216404E-2,3.3442283E-3,1.5834376E-2,-5.1834967E-2,5.6010693E-2,2.1106387E-2,-6.2962405E-2,4.1588336E-2,-5.9853584E-2,-1.23403305E-2,6.7787066E-2,7.510712E-4,1.21514306E-4,5.001533E-2,2.5232717E-2,-6.917694E-2,8.230607E-3,5.704611E-2,5.3309584E-3,-5.7344526E-2,-6.2130906E-2,1.1179431E-2,3.921322E-2,-3.171345E-2,3.139203E-2,-1.4520578E-2,2.6317466E-2,-6.872414E-3],"split_indices":[45,35,39,74,15,35,26,74,72,36,39,44,66,40,16,79,40,61,36,36,42,0,45,5,2,7,52,62,38,40,35,0,0,0,0,0,0,0,0,0,0,0,0,0,0,0,0,0,0,0,0,0,0,0,0,0,0,0,0,0,0],"split_type":[0,0,0,0,0,0,0,0,0,0,0,0,0,0,0,0,0,0,0,0,0,0,0,0,0,0,0,0,0,0,0,0,0,0,0,0,0,0,0,0,0,0,0,0,0,0,0,0,0,0,0,0,0,0,0,0,0,0,0,0,0],"sum_hessian":[8.6050964E2,2.9410693E2,5.664027E2,2.096458E2,8.446114E1,2.5093791E2,3.1546478E2,3.8094276E1,1.7155151E2,6.86557E1,1.5805438E1,1.1765256E1,2.3917267E2,4.081266E1,2.7465213E2,2.1566887E1,1.6527391E1,3.7854095E1,1.3369742E2,1.4547291E1,5.410841E1,2.0012836E0,1.3804154E1,2.0078745E0,9.757381E0,2.1036845E2,2.8804203E1,1.926516E1,2.15475E1,2.174872E2,5.716493E1,3.5022979E0,1.8064589E1,9.759278E0,6.7681127E0,3.0596354E1,7.257742E0,1.2805336E1,1.2089209E2,1.7490559E0,1.2798235E1,1.0258803E1,4.384961E1,8.289638E0,5.5145173E0,1.0023454E0,1.005529E0,1.0041711E0,8.75321E0,1.9605934E2,1.4309115E1,1.8047173E1,1.07570305E1,1.8011139E1,1.2540207E0,4.7689633E0,1.6778538E1,1.3547604E1,2.0393959E2,3.1605904E1,2.5559023E1],"tree_param":{"num_deleted":"0","num_feature":"84","num_nodes":"61","size_leaf_vector":"1"}},{"base_weights":[-8.26731E-3,-4.3836985E-2,3.759839E-1,1.07706E-1,-1.3644204E-1,5.1928276E-1,-5.1016366E-1,8.7539595E-1,7.9052635E-2,-2.515602E-1,6.0562655E-2,5.791074E-1,-7.754899E-1,3.636931E-1,-1.1989013E0,1.1878761E0,-3.297077E-1,3.8214287E-1,1.4822879E-2,-5.2277442E-2,-4.1275832E-1,6.6708064E-1,-3.1030826E-2,6.8817294E-1,-2.371039E-1,4.933718E-4,-5.6489833E-2,6.80429E-2,-7.484042E-1,-8.763686E-3,-7.794625E-2,-2.3925368E-2,7.318315E-2,8.221524E-4,-2.5566801E-2,3.1479523E-2,-1.200142E-2,1.1194838E-2,-6.798174E-3,2.735287E-3,-3.4099266E-2,-3.5980944E-2,-1.3477764E-2,4.5682516E-2,-2.6339544E-2,-3.676734E-2,2.5501233E-3,2.1955563E-2,6.4299434E-2,3.4074884E-2,-2.542211E-2,7.7615766E-4,-5.47817E-2],"categories":[],"categories_nodes":[],"categories_segments":[],"categories_sizes":[],"default_left":[0,0,0,0,0,0,0,0,0,0,0,0,0,0,0,0,0,0,0,0,0,0,0,0,0,0,0,0,0,0,0,0,0,0,0,0,0,0,0,0,0,0,0,0,0,0,0,0,0,0,0,0,0],"id":2,"left_children":[1,3,5,7,9,11,13,15,17,19,21,23,25,27,29,31,33,35,37,39,41,43,45,47,49,-1,-1,-1,51,-1,-1,-1,-1,-1,-1,-1,-1,-1,-1,-1,-1,-1,-1,-1,-1,-1,-1,-1,-1,-1,-1,-1,-1],"loss_changes":[1.189084E1,1.1186558E1,9.625338E0,6.5850782E0,1.1231434E1,5.402466E0,6.915231E0,4.4531183E0,5.6929235E0,1.0012461E1,1.0198794E1,5.655411E0,9.1596484E-1,7.1312327E0,2.0312157E0,4.736228E0,1.9724166E-1,8.025227E0,7.6778593E0,9.524203E0,7.38764E0,7.570508E0,9.289472E0,7.5768127E0,2.3445315E0,0E0,0E0,0E0,8.7939453E-1,0E0,0E0,0E0,0E0,0E0,0E0,0E0,0E0,0E0,0E0,0E0,0E0,0E0,0E0,0E0,0E0,0E0,0E0,0E0,0E0,0E0,0E0,0E0,0E0],"parents":[2147483647,0,0,1,1,2,2,3,3,4,4,5,5,6,6,7,7,8,8,9,9,10,10,11,11,12,12,13,13,14,14,15,15,16,16,17,17,18,18,19,19,20,20,21,21,22,22,23,23,24,24,28,28],"right_children":[2,4,6,8,10,12,14,16,18,20,22,24,26,28,30,32,34,36,38,40,42,44,46,48,50,-1,-1,-1,52,-1,-1,-1,-1,-1,-1,-1,-1,-1,-1,-1,-1,-1,-1,-1,-1,-1,-1,-1,-1,-1,-1,-1,-1],"split_conditions":[1.3066161E0,-2.1069887E-1,1.4534914E0,-8.3976084E-1,-9.747896E-2,2.661461E0,-1.8344274E0,7.7643853E-1,-7.590917E-1,-7.638589E-2,-1.099942E0,9.057367E-1,3.103325E0,1.2419189E0,1.6475272E0,-6.4517057E-1,-3.6226746E-1,9.430469E-1,-2.2654513E-2,5.7721376E-1,-7.655502E-1,5.084343E-1,-6.546422E-1,-1.2213396E-1,1.2843286E0,4.933718E-4,-5.6489833E-2,6.80429E-2,1.4272234E0,-8.763686E-3,-7.794625E-2,-2.3925368E-2,7.318315E-2,8.221524E-4,-2.5566801E-2,3.1479523E-2,-1.200142E-2,1.1194838E-2,-6.798174E-3,2.735287E-3,-3.4099266E-2,-3.5980944E-2,-1.3477764E-2,4.5682516E-2,-2.6339544E-2,-3.676734E-2,2.5501233E-3,2.1955563E-2,6.4299434E-2,3.4074884E-2,-2.542211E-2,7.7615766E-4,-5.47817E-2],"split_indices":[29,45,17,8,61,78,14,5,39,39,72,13,53,42,15,28,15,28,76,15,66,9,41,61,34,0,0,0,5,0,0,0,0,0,0,0,0,0,0,0,0,0,0,0,0,0,0,0,0,0,0,0,0],"split_type":[0,0,0,0,0,0,0,0,0,0,0,0,0,0,0,0,0,0,0,0,0,0,0,0,0,0,0,0,0,0,0,0,0,0,0,0,0,0,0,0,0,0,0,0,0,0,0,0,0,0,0,0,0],"sum_hessian":[8.6779034E2,7.9507697E2,7.271341E1,3.0150986E2,4.935671E2,6.294808E1,9.765328E0,9.785392E0,2.9172446E2,3.113533E2,1.8221382E2,6.0696354E1,2.251726E0,4.512235E0,5.2530932E0,7.7818694E0,2.003522E0,5.0145588E1,2.4157887E2,1.3982167E2,1.7153162E2,2.3082432E1,1.5913138E2,5.3680244E1,7.0161085E0,1.002261E0,1.249465E0,2.2611148E0,2.25112E0,1.7537193E0,3.499374E0,1.0006421E0,6.781227E0,1.0024681E0,1.0010539E0,3.586827E1,1.4277316E1,1.0102169E2,1.4055719E2,1.2029711E2,1.9524555E1,5.3297874E1,1.1823375E2,1.93258E1,3.7566307E0,1.5770039E1,1.4336134E2,3.911761E1,1.4562633E1,1.2551723E0,5.7609363E0,1.0019848E0,1.2491354E0],"tree_param":{"num_deleted":"0","num_feature":"84","num_nodes":"53","size_leaf_vector":"1"}},{"base_weights":[1.3783047E-2,1.9749855E-1,-8.0631845E-2,3.157253E-1,-9.180516E-2,-1.05003454E-1,9.7709364E-1,3.526043E-1,-4.7612476E-1,-9.6221364E-1,7.1958184E-2,3.1203132E-2,-2.2497639E-1,1.2033415E0,1.7790955E-2,2.4464245E-1,6.042216E-1,-9.6329564E-1,4.634937E-1,-1.2506853E0,1.3832526E-1,6.988535E-1,-6.800676E-2,-7.1921587E-1,8.980609E-2,2.2815193E-1,-3.0419746E-1,1.465014E0,2.6066148E-1,4.9091052E-2,-3.8116947E-2,1.397605E-2,-4.4256613E-2,-2.373427E-2,3.6976736E-2,-6.373094E-2,1.1194791E-2,4.8426345E-2,-2.6383875E-2,-7.301875E-2,1.0611044E-2,5.9346903E-2,-5.4616798E-2,-5.982638E-3,5.7816543E-2,-3.6129E-2,5.7676597E-3,-7.599341E-2,-1.3329389E-2,1.9176824E-2,-3.099709E-3,-2.6611596E-2,2.2311006E-2,1.686764E-2,-1.7759727E-2,8.214482E-2,2.642337E-2,-1.9946408E-2,4.773012E-2],"categories":[],"categories_nodes":[],"categories_segments":[],"categories_sizes":[],"default_left":[0,0,0,0,0,0,0,0,0,0,0,0,0,0,0,0,0,0,0,0,0,0,0,0,0,0,0,0,0,0,0,0,0,0,0,0,0,0,0,0,0,0,0,0,0,0,0,0,0,0,0,0,0,0,0,0,0,0,0],"id":3,"left_children":[1,3,5,7,9,11,13,15,17,19,21,23,25,27,29,31,33,35,37,39,41,43,45,47,49,51,53,55,57,-1,-1,-1,-1,-1,-1,-1,-1,-1,-1,-1,-1,-1,-1,-1,-1,-1,-1,-1,-1,-1,-1,-1,-1,-1,-1,-1,-1,-1,-1],"loss_changes":[1.5087228E1,1.0127395E1,1.4916043E1,6.2951355E0,1.2388633E1,9.200597E0,2.8086882E0,5.313875E0,4.9153285E0,4.5400143E0,6.511714E0,1.169006E1,1.0811666E1,2.2170935E0,3.3833053E0,5.8574944E0,9.064577E0,2.7816663E0,2.517634E0,3.6837215E0,6.1451178E0,5.2065034E0,7.421115E0,6.5746098E0,1.09967375E1,7.7164335E0,8.467476E0,4.6961403E-1,1.9854007E0,0E0,0E0,0E0,0E0,0E0,0E0,0E0,0E0,0E0,0E0,0E0,0E0,0E0,0E0,0E0,0E0,0E0,0E0,0E0,0E0,0E0,0E0,0E0,0E0,0E0,0E0,0E0,0E0,0E0,0E0],"parents":[2147483647,0,0,1,1,2,2,3,3,4,4,5,5,6,6,7,7,8,8,9,9,10,10,11,11,12,12,13,13,14,14,15,15,16,16,17,17,18,18,19,19,20,20,21,21,22,22,23,23,24,24,25,25,26,26,27,27,28,28],"right_children":[2,4,6,8,10,12,14,16,18,20,22,24,26,28,30,32,34,36,38,40,42,44,46,48,50,52,54,56,58,-1,-1,-1,-1,-1,-1,-1,-1,-1,-1,-1,-1,-1,-1,-1,-1,-1,-1,-1,-1,-1,-1,-1,-1,-1,-1,-1,-1,-1,-1],"split_conditions":[-2.2591674E-1,4.5924652E-1,1.9989103E0,1.1254482E0,-1.3747623E0,-2.2171078E-2,-1.3270615E-1,-4.1991082E-1,9.7874814E-1,-4.9108893E-1,-1.0269613E0,-1.5828424E0,-3.466394E-1,1.8231791E0,1.0306365E0,8.4937626E-1,-1.389306E0,4.853042E-1,-7.150545E-2,2.0875898E-1,-6.156864E-1,2.9830107E-1,-7.632245E-1,-1.4366659E0,-3.1830692E-1,-2.8651658E-2,-8.01866E-1,1.5762973E0,5.3849137E-1,4.9091052E-2,-3.8116947E-2,1.397605E-2,-4.4256613E-2,-2.373427E-2,3.6976736E-2,-6.373094E-2,1.1194791E-2,4.8426345E-2,-2.6383875E-2,-7.301875E-2,1.0611044E-2,5.9346903E-2,-5.4616798E-2,-5.982638E-3,5.7816543E-2,-3.6129E-2,5.7676597E-3,-7.599341E-2,-1.3329389E-2,1.9176824E-2,-3.099709E-3,-2.6611596E-2,2.2311006E-2,1.686764E-2,-1.7759727E-2,8.214482E-2,2.642337E-2,-1.9946408E-2,4.773012E-2],"split_indices":[45,35,8,12,14,39,11,47,14,44,36,35,35,9,9,5,11,76,72,16,45,77,62,54,9,47,42,71,1,0,0,0,0,0,0,0,0,0,0,0,0,0,0,0,0,0,0,0,0,0,0,0,0,0,0,0,0,0,0],"split_type":[0,0,0,0,0,0,0,0,0,0,0,0,0,0,0,0,0,0,0,0,0,0,0,0,0,0,0,0,0,0,0,0,0,0,0,0,0,0,0,0,0,0,0,0,0,0,0,0,0,0,0,0,0,0,0,0,0,0,0],"sum_hessian":[8.6788947E2,2.9424545E2,5.73644E2,2.0881845E2,8.542701E1,5.616045E2,1.20395E1,2.0005591E2,8.762536E0,1.2755484E1,7.2671524E1,2.633548E2,2.982497E2,9.536063E0,2.503436E0,1.4137024E2,5.8685677E1,5.7540126E0,3.0085237E0,9.998311E0,2.7571728E0,1.2534979E1,6.0136543E1,1.826002E1,2.4509479E2,4.410399E1,2.5414569E2,7.0304356E0,2.505628E0,1.0041018E0,1.4993343E0,1.378666E2,3.5036445E0,6.260457E0,5.242522E1,4.500248E0,1.2537646E0,2.0081522E0,1.0003713E0,8.746359E0,1.2519529E0,1.5078788E0,1.249294E0,4.758911E0,7.7760677E0,1.2515811E1,4.7620735E1,5.743134E0,1.2516884E1,8.298804E1,1.6210675E2,9.508399E0,3.459559E1,1.8301033E1,2.3584467E2,5.274432E0,1.7560034E0,1.5025673E0,1.0030608E0],"tree_param":{"num_deleted":"0","num_feature":"84","num_nodes":"59","size_leaf_vector":"1"}},{"base_weights":[-1.865965E-2,-4.067427E-2,5.9596366E-1,1.795845E-1,-9.270111E-2,-2.1267226E-2,1.0376632E0,3.2711998E-1,-1.8884684E-1,-4.286919E-2,-4.412465E-1,-9.838278E-1,3.4691608E-1,1.2624654E0,-1.23782806E-1,5.578961E-1,6.600855E-2,-3.5879153E-1,9.1010076E-1,1.2345699E-1,-1.0370217E-1,-6.1643445E-1,4.4851527E-1,1.3068225E-3,-6.649725E-2,8.8161236E-1,-7.447144E-1,1.1146031E-1,1.460549E0,-3.3274453E-2,2.0618508E-2,-3.429028E-2,3.228711E-2,1.0057057E-2,-4.0914066E-2,-2.7798754E-3,-4.0334176E-2,-2.6013954E-2,6.319644E-2,-2.9472327E-2,9.937139E-3,-2.011674E-3,-2.018277E-2,-5.00761E-4,-3.996324E-2,4.35385E-2,-3.8934585E-2,-2.6418269E-2,5.8953684E-2,-6.682424E-2,2.5617221E-2,4.8041306E-2,-3.4710113E-2,7.946683E-2,-5.6655525E-4],"categories":[],"categories_nodes":[],"categories_segments":[],"categories_sizes":[],"default_left":[0,0,0,0,0,0,0,0,0,0,0,0,0,0,0,0,0,0,0,0,0,0,0,0,0,0,0,0,0,0,0,0,0,0,0,0,0,0,0,0,0,0,0,0,0,0,0,0,0,0,0,0,0,0,0],"id":4,"left_children":[1,3,5,7,9,11,13,15,17,19,21,23,25,27,29,31,33,35,37,39,41,43,45,-1,-1,47,49,51,53,-1,-1,-1,-1,-1,-1,-1,-1,-1,-1,-1,-1,-1,-1,-1,-1,-1,-1,-1,-1,-1,-1,-1,-1,-1,-1],"loss_changes":[1.17626705E1,9.6250725E0,8.2181635E0,8.788862E0,1.17731285E1,5.13269E0,4.7367363E0,6.893471E0,9.0187845E0,6.034178E0,1.3497427E1,1.4334676E0,6.7960925E0,3.2087193E0,1.3652009E0,7.098322E0,6.747973E0,5.5264106E0,3.9555187E0,8.695242E0,8.289545E0,7.8955746E0,8.208239E0,0E0,0E0,3.7762094E0,3.6605306E0,2.8936267E0,2.3939075E0,0E0,0E0,0E0,0E0,0E0,0E0,0E0,0E0,0E0,0E0,0E0,0E0,0E0,0E0,0E0,0E0,0E0,0E0,0E0,0E0,0E0,0E0,0E0,0E0,0E0,0E0],"parents":[2147483647,0,0,1,1,2,2,3,3,4,4,5,5,6,6,7,7,8,8,9,9,10,10,11,11,12,12,13,13,14,14,15,15,16,16,17,17,18,18,19,19,20,20,21,21,22,22,25,25,26,26,27,27,28,28],"right_children":[2,4,6,8,10,12,14,16,18,20,22,24,26,28,30,32,34,36,38,40,42,44,46,-1,-1,48,50,52,54,-1,-1,-1,-1,-1,-1,-1,-1,-1,-1,-1,-1,-1,-1,-1,-1,-1,-1,-1,-1,-1,-1,-1,-1,-1,-1],"split_conditions":[1.9812752E0,-6.7879874E-1,-4.4765326E-1,5.57775E-1,2.032245E0,1.224546E0,3.1586518E0,-2.1428585E-1,4.139076E-1,-3.9152268E-1,5.379682E-1,-6.8361E-1,8.5734165E-1,-3.0615285E-1,1.4373717E0,-8.7320256E-1,1.0668024E0,-2.591151E-1,-7.1723217E-1,-1.3988754E0,1.014305E0,-5.295086E-1,1.3770677E0,1.3068225E-3,-6.649725E-2,-5.3284484E-1,1.1694964E0,-2.4004471E0,1.1820446E0,-3.3274453E-2,2.0618508E-2,-3.429028E-2,3.228711E-2,1.0057057E-2,-4.0914066E-2,-2.7798754E-3,-4.0334176E-2,-2.6013954E-2,6.319644E-2,-2.9472327E-2,9.937139E-3,-2.011674E-3,-2.018277E-2,-5.00761E-4,-3.996324E-2,4.35385E-2,-3.8934585E-2,-2.6418269E-2,5.8953684E-2,-6.682424E-2,2.5617221E-2,4.8041306E-2,-3.4710113E-2,7.946683E-2,-5.6655525E-4],"split_indices":[16,54,61,28,70,32,37,35,9,9,79,61,39,28,73,61,73,32,27,71,10,40,5,0,0,28,54,12,42,0,0,0,0,0,0,0,0,0,0,0,0,0,0,0,0,0,0,0,0,0,0,0,0,0,0],"split_type":[0,0,0,0,0,0,0,0,0,0,0,0,0,0,0,0,0,0,0,0,0,0,0,0,0,0,0,0,0,0,0,0,0,0,0,0,0,0,0,0,0,0,0,0,0,0,0,0,0,0,0,0,0,0,0],"sum_hessian":[8.665407E2,8.374777E2,2.9063007E1,1.5955217E2,6.7792554E2,1.2519754E1,1.6543253E1,1.1400991E2,4.5542263E1,5.941082E2,8.381731E1,3.0012689E0,9.518486E0,1.378763E1,2.7556229E0,5.991717E1,5.4092743E1,4.0026028E1,5.516237E0,1.5882587E2,4.3528235E2,7.028572E1,1.3531584E1,1.0019835E0,1.9992852E0,6.518178E0,3.0003078E0,2.2538533E0,1.1533776E1,1.2507192E0,1.5049036E0,3.503842E0,5.641333E1,4.759245E1,6.500292E0,2.45389E1,1.5487125E1,1.0006394E0,4.5155973E0,1.45183E1,1.4430757E2,3.601999E2,7.508247E1,1.6526087E1,5.3759636E1,1.0283652E1,3.2479312E0,1.0003296E0,5.5178485E0,1.9970138E0,1.0032941E0,1.0034158E0,1.2504375E0,1.0532405E1,1.0013715E0],"tree_param":{"num_deleted":"0","num_feature":"84","num_nodes":"55","size_leaf_vector":"1"}},{"base_weights":[9.728501E-3,-1.8847773E-2,3.191457E-1,1.2008512E-1,-1.2561426E-1,8.667674E-1,6.4448185E-2,9.4806004E-1,9.133945E-2,-7.375933E-2,-4.5784763E-1,1.0069984E0,-2.733447E-2,5.2033234E-1,-4.7593275E-1,1.2715011E0,-2.7362263E-2,-2.8708446E-1,1.4056382E-1,-5.509572E-1,-3.4375977E-2,1.763659E-1,-8.6356544E-1,3.219981E-1,1.4521687E0,1.8045813E-2,9.9537766E-1,-7.793838E-1,4.696918E-2,7.432216E-2,9.137303E-3,-7.410258E-3,-7.3419705E-2,6.34662E-2,5.647304E-3,1.3082142E-2,-3.9480995E-2,2.6028806E-2,-4.0573603E-3,3.55699E-2,-1.9790668E-2,-4.8171863E-2,2.369867E-2,3.3206295E-2,-5.583505E-2,8.232418E-2,-2.9073562E-4,4.8490137E-2,-2.1328649E-2,-3.377336E-2,6.018405E-2,8.209824E-3,-5.1179137E-2,6.056295E-2,-3.2600295E-2],"categories":[],"categories_nodes":[],"categories_segments":[],"categories_sizes":[],"default_left":[0,0,0,0,0,0,0,0,0,0,0,0,0,0,0,0,0,0,0,0,0,0,0,0,0,0,0,0,0,0,0,0,0,0,0,0,0,0,0,0,0,0,0,0,0,0,0,0,0,0,0,0,0,0,0],"id":5,"left_children":[1,3,5,7,9,11,13,15,17,19,21,23,-1,25,27,29,-1,31,33,35,37,39,41,43,45,47,49,51,53,-1,-1,-1,-1,-1,-1,-1,-1,-1,-1,-1,-1,-1,-1,-1,-1,-1,-1,-1,-1,-1,-1,-1,-1,-1,-1],"loss_changes":[7.694824E0,1.1837331E1,1.020635E1,8.168483E0,7.738807E0,5.164154E0,1.2885317E1,6.2727213E0,6.305044E0,7.3377037E0,1.5775826E1,6.0970287E0,0E0,6.735357E0,3.844264E0,2.0173655E0,0E0,6.187206E0,9.154879E0,5.981366E0,9.45554E0,7.787676E0,5.4258137E0,5.547906E0,3.6254196E0,6.6662097E0,5.8692083E0,3.6800222E0,8.72855E0,0E0,0E0,0E0,0E0,0E0,0E0,0E0,0E0,0E0,0E0,0E0,0E0,0E0,0E0,0E0,0E0,0E0,0E0,0E0,0E0,0E0,0E0,0E0,0E0,0E0,0E0],"parents":[2147483647,0,0,1,1,2,2,3,3,4,4,5,5,6,6,7,7,8,8,9,9,10,10,11,11,13,13,14,14,15,15,17,17,18,18,19,19,20,20,21,21,22,22,23,23,24,24,25,25,26,26,27,27,28,28],"right_children":[2,4,6,8,10,12,14,16,18,20,22,24,-1,26,28,30,-1,32,34,36,38,40,42,44,46,48,50,52,54,-1,-1,-1,-1,-1,-1,-1,-1,-1,-1,-1,-1,-1,-1,-1,-1,-1,-1,-1,-1,-1,-1,-1,-1,-1,-1],"split_conditions":[1.3066161E0,-2.0263223E-1,-5.751612E-1,-9.993759E-1,2.032245E0,1.2419189E0,9.029567E-1,2.0132011E-1,-6.762136E-1,-9.239321E-1,2.4585009E-2,8.206589E-2,-2.733447E-2,9.217776E-1,1.2687336E0,2.8171647E-1,-2.7362263E-2,1.8299513E0,-5.587902E-1,-7.371657E-1,-1.066805E0,-3.0545366E-1,1.5060987E0,3.0798528E-1,2.425323E0,-3.441624E-1,-7.1478355E-1,-5.0851816E-1,1.3779131E0,7.432216E-2,9.137303E-3,-7.410258E-3,-7.3419705E-2,6.34662E-2,5.647304E-3,1.3082142E-2,-3.9480995E-2,2.6028806E-2,-4.0573603E-3,3.55699E-2,-1.9790668E-2,-4.8171863E-2,2.369867E-2,3.3206295E-2,-5.583505E-2,8.232418E-2,-2.9073562E-4,4.8490137E-2,-2.1328649E-2,-3.377336E-2,6.018405E-2,8.209824E-3,-5.1179137E-2,6.056295E-2,-3.2600295E-2],"split_indices":[29,48,11,8,70,42,15,36,13,39,54,37,0,45,72,15,0,22,13,11,5,63,38,54,63,63,79,11,72,0,0,0,0,0,0,0,0,0,0,0,0,0,0,0,0,0,0,0,0,0,0,0,0,0,0],"split_type":[0,0,0,0,0,0,0,0,0,0,0,0,0,0,0,0,0,0,0,0,0,0,0,0,0,0,0,0,0,0,0,0,0,0,0,0,0,0,0,0,0,0,0,0,0,0,0,0,0,0,0,0,0,0,0],"sum_hessian":[8.68579E2,7.960031E2,7.2575905E1,3.458419E2,4.5016122E2,2.227646E1,5.0299442E1,1.0531021E1,3.3531085E2,3.9044296E2,5.9718258E1,2.0527466E1,1.7489941E0,2.7302883E1,2.299656E1,8.781267E0,1.7497547E0,3.803968E1,2.9727118E2,2.8776463E1,3.616665E2,2.3518969E1,3.6199287E1,8.764506E0,1.17629595E1,1.3775463E1,1.3527419E1,1.4241448E1,8.755111E0,7.028442E0,1.7528251E0,3.50451E1,2.9945796E0,6.0259275E0,2.9124527E2,6.5111117E0,2.226535E1,2.732449E1,3.34342E2,1.202828E1,1.1490689E1,3.394441E1,2.2548788E0,7.5156436E0,1.2488626E0,1.0265519E1,1.4974402E0,4.010128E0,9.765335E0,1.2509087E0,1.227651E1,2.9952946E0,1.1246154E1,3.0094059E0,5.745705E0],"tree_param":{"num_deleted":"0","num_feature":"84","num_nodes":"55","size_leaf_vector":"1"}},{"base_weights":[4.9263528E-3,1.6345443E-1,-8.670015E-2,2.3808579E-1,-1.8089604E-1,-1.9656021E-2,-5.6343883E-1,1.7915292E-1,6.530774E-1,1.1516259E-1,-6.24498E-1,-5.176063E-1,1.42934015E-2,-7.92907E-1,-6.3855387E-3,1.3901845E-1,9.2675054E-1,7.600264E-1,-5.51289E-2,1.0100639E0,-1.1476185E-1,-9.308633E-1,4.532281E-1,9.498519E-1,-7.571623E-1,-6.3393615E-2,2.6394572E-2,-8.677016E-1,5.5239182E-2,6.0735464E-1,-5.535948E-1,1.2021955E-2,-1.1496554E-2,-1.0637345E-2,5.7621915E-2,5.6167062E-2,6.9597177E-3,6.829819E-2,7.5311526E-3,3.219921E-3,-7.14476E-2,-7.435173E-2,-9.681413E-3,5.3284086E-2,-3.8691226E-2,7.3141806E-2,-2.4492223E-2,-5.046556E-2,1.1968043E-2,-5.121397E-4,2.5151605E-2,8.321663E-5,-5.1084425E-2,5.5150237E-2,-2.7564956E-2,-5.1186997E-2,1.6454915E-2],"categories":[],"categories_nodes":[],"categories_segments":[],"categories_sizes":[],"default_left":[0,0,0,0,0,0,0,0,0,0,0,0,0,0,0,0,0,0,0,0,0,0,0,0,0,0,0,0,0,0,0,0,0,0,0,0,0,0,0,0,0,0,0,0,0,0,0,0,0,0,0,0,0,0,0,0,0],"id":6,"left_children":[1,3,5,7,9,11,13,15,17,19,21,23,25,27,29,31,33,35,-1,37,39,41,43,45,47,-1,49,51,-1,53,55,-1,-1,-1,-1,-1,-1,-1,-1,-1,-1,-1,-1,-1,-1,-1,-1,-1,-1,-1,-1,-1,-1,-1,-1,-1,-1],"loss_changes":[1.257147E1,8.1897135E0,1.7520683E1,6.265312E0,7.5622816E0,8.154299E0,8.634792E0,6.768924E0,6.860216E0,7.327699E0,8.010757E0,1.1541718E1,7.048625E0,7.7521515E0,7.297533E0,8.2633505E0,3.2119875E0,6.796095E0,0E0,2.0168848E0,6.8690166E0,7.1844883E0,5.153391E0,4.234957E0,7.031521E0,0E0,7.8439164E0,6.241184E0,0E0,6.492689E0,5.10144E0,0E0,0E0,0E0,0E0,0E0,0E0,0E0,0E0,0E0,0E0,0E0,0E0,0E0,0E0,0E0,0E0,0E0,0E0,0E0,0E0,0E0,0E0,0E0,0E0,0E0,0E0],"parents":[2147483647,0,0,1,1,2,2,3,3,4,4,5,5,6,6,7,7,8,8,9,9,10,10,11,11,12,12,13,13,14,14,15,15,16,16,17,17,19,19,20,20,21,21,22,22,23,23,24,24,26,26,27,27,29,29,30,30],"right_children":[2,4,6,8,10,12,14,16,18,20,22,24,26,28,30,32,34,36,-1,38,40,42,44,46,48,-1,50,52,-1,54,56,-1,-1,-1,-1,-1,-1,-1,-1,-1,-1,-1,-1,-1,-1,-1,-1,-1,-1,-1,-1,-1,-1,-1,-1,-1,-1],"split_conditions":[-3.339353E-1,6.266816E-1,2.032245E0,5.0833666E-1,-1.2171545E-1,-7.1527493E-1,6.788297E-1,5.6079423E-1,1.028537E0,-1.098091E0,2.0209153E0,-2.5012505E-1,-9.6835357E-1,1.4419127E0,-1.253675E-1,1.0292869E0,-1.0454288E0,1.0040354E0,-5.51289E-2,-7.436965E-1,3.890561E-1,4.763094E-1,2.37547E0,3.673275E-1,7.9703563E-1,-6.3393615E-2,1.1232009E0,-5.295086E-1,5.5239182E-2,1.1325918E-1,1.5155592E0,1.2021955E-2,-1.1496554E-2,-1.0637345E-2,5.7621915E-2,5.6167062E-2,6.9597177E-3,6.829819E-2,7.5311526E-3,3.219921E-3,-7.14476E-2,-7.435173E-2,-9.681413E-3,5.3284086E-2,-3.8691226E-2,7.3141806E-2,-2.4492223E-2,-5.046556E-2,1.1968043E-2,-5.121397E-4,2.5151605E-2,8.321663E-5,-5.1084425E-2,5.5150237E-2,-2.7564956E-2,-5.1186997E-2,1.6454915E-2],"split_indices":[63,28,70,29,51,15,29,71,31,16,79,63,44,15,8,10,74,51,0,71,42,27,28,27,12,0,77,40,0,72,63,0,0,0,0,0,0,0,0,0,0,0,0,0,0,0,0,0,0,0,0,0,0,0,0,0,0],"split_type":[0,0,0,0,0,0,0,0,0,0,0,0,0,0,0,0,0,0,0,0,0,0,0,0,0,0,0,0,0,0,0,0,0,0,0,0,0,0,0,0,0,0,0,0,0,0,0,0,0,0,0,0,0,0,0,0,0],"sum_hessian":[8.635079E2,3.159981E2,5.4750977E2,2.599644E2,5.6033714E1,4.8091898E2,6.659077E1,2.288913E2,3.1073107E1,3.404954E1,2.198417E1,2.9786186E1,4.5113278E2,4.6863E1,1.9727772E1,2.1835495E2,1.0536344E1,2.9823454E1,1.2496532E0,6.2664666E0,2.7783077E1,1.7224136E1,4.7600355E0,3.7639775E0,2.602221E1,3.2477565E0,4.47885E2,4.560818E1,1.2548177E0,9.246806E0,1.0480965E1,1.7154672E2,4.6808224E1,1.7513113E0,8.785032E0,1.8303009E1,1.1520445E1,4.014622E0,2.2518442E0,2.5286789E1,2.4962873E0,9.237962E0,7.986174E0,3.2629325E0,1.4971029E0,2.7633014E0,1.000676E0,2.0757208E1,5.2650003E0,4.1682382E2,3.10612E1,7.0116415E0,3.859654E1,6.5099864E0,2.7368195E0,6.734308E0,3.746657E0],"tree_param":{"num_deleted":"0","num_feature":"84","num_nodes":"57","size_leaf_vector":"1"}},{"base_weights":[7.7082976E-3,7.0424065E-2,-1.7399332E-1,3.1786613E-2,4.9547523E-1,-6.4891005E-1,-5.127629E-2,-2.1789128E-2,3.2189685E-1,7.3592544E-1,-4.0872076E-1,-1.0413722E0,-9.67678E-3,-2.6875818E-1,1.9845587E-1,7.1453854E-2,-1.9524807E-1,-1.1871873E-1,6.388297E-1,6.358974E-2,1.0581034E0,5.054548E-1,-8.860038E-1,-1.2630641E0,-9.7635776E-2,6.787747E-2,-4.8167825E-1,-1.5255661E-1,-9.414705E-1,-1.6861556E-1,4.451343E-1,1.201208E-2,-4.0633804E-3,-3.1343583E-2,-5.1311925E-3,1.7336773E-3,-6.6573344E-2,2.1902889E-2,6.06255E-2,1.8574545E-2,-6.483089E-2,1.559897E-2,6.636001E-2,-3.890453E-2,6.684412E-2,-5.543973E-2,9.995519E-3,-5.377242E-3,-7.075775E-2,5.48968E-2,-2.964881E-2,-4.3254998E-2,1.015736E-2,-4.2933053E-3,-6.508491E-2,-7.015856E-2,-1.8091407E-3,2.0246876E-2,-3.0913085E-2,3.411996E-2,-1.0331121E-2],"categories":[],"categories_nodes":[],"categories_segments":[],"categories_sizes":[],"default_left":[0,0,0,0,0,0,0,0,0,0,0,0,0,0,0,0,0,0,0,0,0,0,0,0,0,0,0,0,0,0,0,0,0,0,0,0,0,0,0,0,0,0,0,0,0,0,0,0,0,0,0,0,0,0,0,0,0,0,0,0,0],"id":7,"left_children":[1,3,5,7,9,11,13,15,17,19,21,23,25,27,29,31,33,35,37,39,41,43,45,47,49,-1,51,53,55,57,59,-1,-1,-1,-1,-1,-1,-1,-1,-1,-1,-1,-1,-1,-1,-1,-1,-1,-1,-1,-1,-1,-1,-1,-1,-1,-1,-1,-1,-1,-1],"loss_changes":[9.959779E0,1.0653455E1,1.3037605E1,9.279731E0,1.20552225E1,1.1521786E1,9.792019E0,8.174074E0,1.3071706E1,9.261034E0,5.6836977E0,5.8334045E0,1.2589529E1,7.3816586E0,7.6848783E0,8.496934E0,6.998237E0,7.445882E0,5.721382E0,6.7700953E0,5.4185295E0,6.1123576E0,2.2169127E0,3.8849258E0,4.5002623E0,0E0,3.9796832E0,6.2706757E0,5.79508E0,9.14858E0,7.9561615E0,0E0,0E0,0E0,0E0,0E0,0E0,0E0,0E0,0E0,0E0,0E0,0E0,0E0,0E0,0E0,0E0,0E0,0E0,0E0,0E0,0E0,0E0,0E0,0E0,0E0,0E0,0E0,0E0,0E0,0E0],"parents":[2147483647,0,0,1,1,2,2,3,3,4,4,5,5,6,6,7,7,8,8,9,9,10,10,11,11,12,12,13,13,14,14,15,15,16,16,17,17,18,18,19,19,20,20,21,21,22,22,23,23,24,24,26,26,27,27,28,28,29,29,30,30],"right_children":[2,4,6,8,10,12,14,16,18,20,22,24,26,28,30,32,34,36,38,40,42,44,46,48,50,-1,52,54,56,58,60,-1,-1,-1,-1,-1,-1,-1,-1,-1,-1,-1,-1,-1,-1,-1,-1,-1,-1,-1,-1,-1,-1,-1,-1,-1,-1,-1,-1,-1,-1],"split_conditions":[4.4079605E-1,3.2075387E-1,-6.5364105E-1,5.673739E-1,7.0445645E-1,4.637485E-2,1.665045E-1,3.7419927E-1,-4.9730977E-1,-6.7038524E-1,-1.0555849E-1,8.837512E-1,-3.7948588E-1,1.0004727E0,3.1677216E-2,-2.065389E-1,-8.294684E-2,1.652222E0,8.260031E-1,-7.1016496E-1,-5.0814086E-1,9.5558524E-1,1.1276425E0,-6.538483E-1,-2.2171078E-2,6.787747E-2,-2.9831696E-1,9.9533916E-1,6.1629536E-3,-5.0942373E-1,1.211474E0,1.201208E-2,-4.0633804E-3,-3.1343583E-2,-5.1311925E-3,1.7336773E-3,-6.6573344E-2,2.1902889E-2,6.06255E-2,1.8574545E-2,-6.483089E-2,1.559897E-2,6.636001E-2,-3.890453E-2,6.684412E-2,-5.543973E-2,9.995519E-3,-5.377242E-3,-7.075775E-2,5.48968E-2,-2.964881E-2,-4.3254998E-2,1.015736E-2,-4.2933053E-3,-6.508491E-2,-7.015856E-2,-1.8091407E-3,2.0246876E-2,-3.0913085E-2,3.411996E-2,-1.0331121E-2],"split_indices":[35,35,61,78,38,79,77,31,79,11,74,27,63,42,63,35,29,66,9,11,29,40,9,78,39,0,73,73,79,27,42,0,0,0,0,0,0,0,0,0,0,0,0,0,0,0,0,0,0,0,0,0,0,0,0,0,0,0,0,0,0],"split_type":[0,0,0,0,0,0,0,0,0,0,0,0,0,0,0,0,0,0,0,0,0,0,0,0,0,0,0,0,0,0,0,0,0,0,0,0,0,0,0,0,0,0,0,0,0,0,0,0,0,0,0,0,0,0,0,0,0,0,0,0,0],"sum_hessian":[8.719301E2,6.486543E2,2.2327582E2,5.955896E2,5.306473E1,4.496659E1,1.7830922E2,5.035264E2,9.20632E1,4.2064693E1,1.100004E1,2.7471289E1,1.7495304E1,9.5267944E1,8.304128E1,3.278685E2,1.7565788E2,3.877781E1,5.3285397E1,1.4014976E1,2.8049717E1,3.7528682E0,7.2471724E0,2.1971603E1,5.499686E0,4.008346E0,1.3486958E1,8.2281715E1,1.2986226E1,3.3503155E1,4.9538124E1,1.5547E2,1.7239851E2,3.0016201E1,1.4564168E2,3.5286118E1,3.491692E0,4.0777878E1,1.2507518E1,1.2020795E1,1.9941809E0,8.007287E0,2.004243E1,1.5005276E0,2.2523406E0,5.9959474E0,1.2512245E0,2.7541199E0,1.9217482E1,1.2547199E0,4.244966E0,8.477381E0,5.0095778E0,7.8784195E1,3.4975245E0,8.235906E0,4.7503204E0,1.4766696E1,1.873646E1,3.628277E1,1.3255358E1],"tree_param":{"num_deleted":"0","num_feature":"84","num_nodes":"61","size_leaf_vector":"1"}},{"base_weights":[3.0508777E-3,1.1576464E0,-7.007253E-3,7.8421876E-2,1.3725299E-1,-3.0316494E-2,3.615412E-1,-3.344583E-2,4.871435E-2,9.958517E-2,-1.1174178E-1,6.4158577E-1,-3.5648942E-2,1.505565E-1,-3.924439E-1,-6.282993E-2,-4.664569E-1,8.71181E-1,-2.0536557E-1,-3.6919802E-1,9.31092E-1,4.6345773E-3,3.3363685E-2,-3.194817E-2,2.699011E-2,2.5461836E-2,-4.4914256E-3,-1.178701E-2,-4.8594113E-2,-3.237028E-2,4.9147826E-2,2.451696E-2,-4.062755E-2,5.6547232E-2,-2.9209137E-2,7.05466E-2,-7.450744E-3],"categories":[],"categories_nodes":[],"categories_segments":[],"categories_sizes":[],"default_left":[0,0,0,0,0,0,0,0,0,0,0,0,0,0,0,0,0,0,0,0,0,0,0,0,0,0,0,0,0,0,0,0,0,0,0,0,0],"id":8,"left_children":[1,3,5,-1,7,9,11,-1,-1,13,15,17,19,21,23,25,27,29,31,33,35,-1,-1,-1,-1,-1,-1,-1,-1,-1,-1,-1,-1,-1,-1,-1,-1],"loss_changes":[1.011E1,2.9361906E0,7.4276743E0,0E0,2.8474133E0,8.609617E0,5.7438183E0,0E0,0E0,7.927764E0,8.648522E0,6.054886E0,7.5072794E0,8.460255E0,7.1771393E0,6.852573E0,6.820586E0,4.7040024E0,3.4625597E0,6.21842E0,3.310924E0,0E0,0E0,0E0,0E0,0E0,0E0,0E0,0E0,0E0,0E0,0E0,0E0,0E0,0E0,0E0,0E0],"parents":[2147483647,0,0,1,1,2,2,4,4,5,5,6,6,9,9,10,10,11,11,12,12,13,13,14,14,15,15,16,16,17,17,18,18,19,19,20,20],"right_children":[2,4,6,-1,8,10,12,-1,-1,14,16,18,20,22,24,26,28,30,32,34,36,-1,-1,-1,-1,-1,-1,-1,-1,-1,-1,-1,-1,-1,-1,-1,-1],"split_conditions":[-2.4647553E0,-1.2649737E-1,1.5735676E0,7.8421876E-2,4.7702706E-1,-3.7614653E-1,3.2499284E-1,-3.344583E-2,4.871435E-2,2.7064338E-2,2.032245E0,4.1764098E-1,1.0267673E0,-4.4805756E-1,3.5849294E-1,-1.4581823E0,3.7219596E-1,-2.1454906E0,-2.3191762E-1,-5.8556205E-1,2.2344024E0,4.6345773E-3,3.3363685E-2,-3.194817E-2,2.699011E-2,2.5461836E-2,-4.4914256E-3,-1.178701E-2,-4.8594113E-2,-3.237028E-2,4.9147826E-2,2.451696E-2,-4.062755E-2,5.6547232E-2,-2.9209137E-2,7.05466E-2,-7.450744E-3],"split_indices":[51,80,29,0,28,32,54,0,0,45,70,12,77,31,62,72,17,35,35,35,63,0,0,0,0,0,0,0,0,0,0,0,0,0,0,0,0],"split_type":[0,0,0,0,0,0,0,0,0,0,0,0,0,0,0,0,0,0,0,0,0,0,0,0,0,0,0,0,0,0,0,0,0,0,0,0,0],"sum_hessian":[8.688721E2,6.5183673E0,8.623537E2,4.2644787E0,2.2538888E0,8.1192065E2,5.043305E1,1.2504226E0,1.0034661E0,3.12751E2,4.9916965E2,2.9217516E1,2.1215532E1,2.84022E2,2.8729008E1,4.3971432E2,5.9455326E1,2.2963785E1,6.2537313E0,1.6232891E1,4.9826407E0,2.5647934E2,2.7542643E1,2.2969612E1,5.759396E0,1.9012001E1,4.2070233E2,4.182806E1,1.7627264E1,1.2458318E0,2.1717953E1,3.0041063E0,3.2496247E0,1.5006838E0,1.4732207E1,3.237905E0,1.7447358E0],"tree_param":{"num_deleted":"0","num_feature":"84","num_nodes":"37","size_leaf_vector":"1"}},{"base_weights":[-1.5007164E-2,8.641878E-2,-1.0144366E-1,-3.5491535E-1,1.3415278E-1,-1.18612394E-1,9.315067E-1,-8.709271E-2,-1.059028E0,7.316249E-1,9.408092E-2,-1.328199E-1,9.7999233E-1,1.2044159E0,-1.3658181E-2,-7.6033634E-1,3.240241E-1,-1.3217112E0,1.7262561E-2,9.765066E-1,-4.6554983E-1,-1.532809E-2,3.28847E-1,-1.0151136E-1,-6.037856E-1,6.6823795E-2,-1.04900515E-2,6.9889806E-2,1.082241E-2,2.7054587E-2,-5.2502967E-2,6.6403024E-2,-7.862354E-3,-5.5613153E-4,-7.3993154E-2,5.902442E-2,-8.392497E-3,1.6391894E-2,-6.171739E-2,-4.1447107E-2,1.5906306E-3,4.16083E-2,7.1838275E-3,-6.721053E-3,2.8840123E-2,-5.1643815E-2,-1.083757E-4],"categories":[],"categories_nodes":[],"categories_segments":[],"categories_sizes":[],"default_left":[0,0,0,0,0,0,0,0,0,0,0,0,0,0,0,0,0,0,0,0,0,0,0,0,0,0,0,0,0,0,0,0,0,0,0,0,0,0,0,0,0,0,0,0,0,0,0],"id":9,"left_children":[1,3,5,7,9,11,13,15,17,19,21,23,25,27,-1,29,31,33,-1,35,37,39,41,43,45,-1,-1,-1,-1,-1,-1,-1,-1,-1,-1,-1,-1,-1,-1,-1,-1,-1,-1,-1,-1,-1,-1],"loss_changes":[7.596945E0,8.448639E0,8.40604E0,7.2993045E0,8.564279E0,7.325722E0,2.8804173E0,8.407322E0,4.407469E0,7.0557117E0,8.71424E0,6.6625338E0,2.8274064E0,9.416046E-1,0E0,4.895852E0,9.393539E0,1.8967419E0,0E0,4.636959E0,3.1499503E0,8.933765E0,9.93025E0,9.649174E0,7.283226E0,0E0,0E0,0E0,0E0,0E0,0E0,0E0,0E0,0E0,0E0,0E0,0E0,0E0,0E0,0E0,0E0,0E0,0E0,0E0,0E0,0E0,0E0],"parents":[2147483647,0,0,1,1,2,2,3,3,4,4,5,5,6,6,7,7,8,8,9,9,10,10,11,11,12,12,13,13,15,15,16,16,17,17,19,19,20,20,21,21,22,22,23,23,24,24],"right_children":[2,4,6,8,10,12,14,16,18,20,22,24,26,28,-1,30,32,34,-1,36,38,40,42,44,46,-1,-1,-1,-1,-1,-1,-1,-1,-1,-1,-1,-1,-1,-1,-1,-1,-1,-1,-1,-1,-1,-1],"split_conditions":[-2.2171078E-2,-1.5193484E0,2.0429652E0,-1.1279924E-2,-1.1768134E0,2.752992E0,8.733694E-1,-1.5263193E0,1.3925935E0,-8.296079E-2,2.6679578E-1,1.4390376E0,1.4770119E0,6.867298E-1,-1.3658181E-2,-3.909991E0,-8.3881265E-1,-9.6802765E-1,1.7262561E-2,9.7235763E-1,6.791691E-1,8.465586E-4,1.9242987E-1,1.1067836E0,6.283597E-2,6.6823795E-2,-1.04900515E-2,6.9889806E-2,1.082241E-2,2.7054587E-2,-5.2502967E-2,6.6403024E-2,-7.862354E-3,-5.5613153E-4,-7.3993154E-2,5.902442E-2,-8.392497E-3,1.6391894E-2,-6.171739E-2,-4.1447107E-2,1.5906306E-3,4.16083E-2,7.1838275E-3,-6.721053E-3,2.8840123E-2,-5.1643815E-2,-1.083757E-4],"split_indices":[39,35,1,62,35,62,39,54,31,41,37,62,40,41,0,39,37,15,0,10,32,43,53,62,28,0,0,0,0,0,0,0,0,0,0,0,0,0,0,0,0,0,0,0,0,0,0],"split_type":[0,0,0,0,0,0,0,0,0,0,0,0,0,0,0,0,0,0,0,0,0,0,0,0,0,0,0,0,0,0,0,0,0,0,0,0,0,0,0,0,0,0,0,0,0,0,0],"sum_hessian":[8.645482E2,3.977833E2,4.6676495E2,3.8196335E1,3.5958698E2,4.6000436E2,6.7605886E0,2.8485155E1,9.711179E0,2.1516582E1,3.3807037E2,4.5499927E2,5.0050964E0,5.512079E0,1.2485099E0,1.0477611E1,1.8007544E1,8.230404E0,1.4807744E0,1.8015785E1,3.5007987E0,2.3123956E2,1.06830826E2,4.2777728E2,2.7221964E1,3.756344E0,1.2487524E0,4.2628655E0,1.2492135E0,1.7498251E0,8.727786E0,5.2647166E0,1.2742826E1,1.0014895E0,7.2289147E0,1.526349E1,2.7522943E0,2.0051184E0,1.4956805E0,1.1755955E1,2.194836E2,2.7792608E1,7.9038216E1,4.0874792E2,1.902936E1,1.5470875E1,1.1751089E1],"tree_param":{"num_deleted":"0","num_feature":"84","num_nodes":"47","size_leaf_vector":"1"}},{"base_weights":[1.0832668E-2,1.4374648E-1,-6.5250315E-2,1.137202E-1,1.2334424E0,-1.0784782E-1,2.3663001E-1,1.595061E-1,-4.1110525E-1,1.3812156E0,1.1277174E-2,-6.693774E-2,-4.2107943E-1,4.4883832E-1,-2.5360808E-1,2.0605345E-1,-3.4298745E-1,-6.97696E-1,4.1557795E-1,1.907273E-2,7.9221964E-2,-4.549408E-2,-7.855029E-1,-4.90235E-1,6.1438113E-2,5.20061E-1,-5.9905976E-1,2.920708E-1,-6.760507E-1,-5.449189E-3,1.4407319E-2,2.3966597E-3,-4.4107743E-2,2.5927378E-2,-4.583301E-2,4.4298455E-2,-3.9414275E-2,4.1609802E-4,-1.6440215E-2,2.646545E-2,-5.8886983E-2,-1.3199364E-2,-4.9029943E-2,3.890901E-2,2.3295754E-3,1.0140355E-2,-5.6798834E-2,-2.846402E-2,3.713717E-2,-4.1318793E-2,2.5122894E-2],"categories":[],"categories_nodes":[],"categories_segments":[],"categories_sizes":[],"default_left":[0,0,0,0,0,0,0,0,0,0,0,0,0,0,0,0,0,0,0,0,0,0,0,0,0,0,0,0,0,0,0,0,0,0,0,0,0,0,0,0,0,0,0,0,0,0,0,0,0,0,0],"id":10,"left_children":[1,3,5,7,9,11,13,15,17,19,-1,21,23,25,27,29,31,33,35,-1,-1,37,39,41,-1,43,45,47,49,-1,-1,-1,-1,-1,-1,-1,-1,-1,-1,-1,-1,-1,-1,-1,-1,-1,-1,-1,-1,-1,-1],"loss_changes":[8.671329E0,1.0072592E1,7.0393534E0,7.39136E0,9.1999817E-1,6.1056137E0,7.1630344E0,6.6460714E0,6.151798E0,8.2110786E-1,0E0,6.506186E0,6.889758E0,3.8679018E0,5.0634737E0,6.7016697E0,5.144802E0,5.4676237E0,4.6601577E0,0E0,0E0,6.304473E0,6.9364257E0,5.688162E0,0E0,5.4819946E0,1.7360814E0,4.269499E0,2.5765204E0,0E0,0E0,0E0,0E0,0E0,0E0,0E0,0E0,0E0,0E0,0E0,0E0,0E0,0E0,0E0,0E0,0E0,0E0,0E0,0E0,0E0,0E0],"parents":[2147483647,0,0,1,1,2,2,3,3,4,4,5,5,6,6,7,7,8,8,9,9,11,11,12,12,13,13,14,14,15,15,16,16,17,17,18,18,21,21,22,22,23,23,25,25,26,26,27,27,28,28],"right_children":[2,4,6,8,10,12,14,16,18,20,-1,22,24,26,28,30,32,34,36,-1,-1,38,40,42,-1,44,46,48,50,-1,-1,-1,-1,-1,-1,-1,-1,-1,-1,-1,-1,-1,-1,-1,-1,-1,-1,-1,-1,-1,-1],"split_conditions":[-3.65022E-1,9.9521464E-1,1.3066161E0,1.5348332E0,1.2325858E0,2.032245E0,1.9504539E0,3.037303E-2,-6.476748E-1,-1.1474054E0,1.1277174E-2,1.8105394E0,2.003024E0,2.8855314E0,1.0554218E0,-6.4962214E-1,3.7089136E-1,-1.4201723E0,2.631727E-1,1.907273E-2,7.9221964E-2,9.3401134E-1,-6.2683773E-1,9.1416055E-1,6.1438113E-2,1.9399966E-1,-4.0136233E-1,-4.4284377E-1,8.092241E-1,-5.449189E-3,1.4407319E-2,2.3966597E-3,-4.4107743E-2,2.5927378E-2,-4.583301E-2,4.4298455E-2,-3.9414275E-2,4.1609802E-4,-1.6440215E-2,2.646545E-2,-5.8886983E-2,-1.3199364E-2,-4.9029943E-2,3.890901E-2,2.3295754E-3,1.0140355E-2,-5.6798834E-2,-2.846402E-2,3.713717E-2,-4.1318793E-2,2.5122894E-2],"split_indices":[32,62,29,66,13,70,38,45,53,32,0,66,61,16,62,74,38,53,53,0,0,10,39,5,0,13,41,79,14,0,0,0,0,0,0,0,0,0,0,0,0,0,0,0,0,0,0,0,0,0,0],"split_type":[0,0,0,0,0,0,0,0,0,0,0,0,0,0,0,0,0,0,0,0,0,0,0,0,0,0,0,0,0,0,0,0,0,0,0,0,0,0,0,0,0,0,0,0,0,0,0,0,0,0,0],"sum_hessian":[8.555605E2,3.1113364E2,5.444269E2,3.0386508E2,7.2685595E0,4.776673E2,6.6759575E1,2.8012314E2,2.3741928E1,6.0161157E0,1.2524434E0,4.2356116E2,5.410613E1,4.6650513E1,2.010906E1,2.569144E2,2.3208746E1,1.7745893E1,5.9960346E0,1.502343E0,4.513773E0,4.123199E2,1.1241273E1,5.260401E1,1.502116E0,4.415325E1,2.4972634E0,8.909311E0,1.1199749E1,5.3040455E1,2.0387393E2,1.3982153E1,9.226593E0,2.4986858E0,1.5247209E1,4.501288E0,1.4947472E0,3.4731622E2,6.500365E1,2.502663E0,8.73861E0,3.7048603E1,1.5555411E1,2.8158594E1,1.59946575E1,1.2510854E0,1.2461782E0,2.9698966E0,5.939415E0,1.0197763E1,1.0019848E0],"tree_param":{"num_deleted":"0","num_feature":"84","num_nodes":"51","size_leaf_vector":"1"}},{"base_weights":[-1.0468009E-2,1.2547006E-1,-1.1946536E-1,-9.125235E-1,1.4362863E-1,-1.3796173E-1,7.4115986E-1,2.0419074E-2,-6.836011E-2,1.760552E-1,-4.0206587E-1,-4.9745595E-1,-9.795488E-2,7.459422E-2,2.2344537E-2,3.700731E-1,8.4698334E-2,-1.2052971E0,6.8185E-2,-5.9590894E-1,6.4461805E-2,-1.1307157E0,-8.233494E-2,8.952536E-1,-5.280108E-2,1.0445314E-2,4.3126658E-2,1.2917605E-2,-5.4273284E-3,1.5363148E-4,-6.896522E-2,-3.3172566E-2,2.6155725E-2,-1.5085367E-2,-5.313765E-2,-7.662931E-2,2.415399E-2,-6.376404E-4,-1.4736878E-2,5.8177914E-2,8.3527155E-3],"categories":[],"categories_nodes":[],"categories_segments":[],"categories_sizes":[],"default_left":[0,0,0,0,0,0,0,0,0,0,0,0,0,0,0,0,0,0,0,0,0,0,0,0,0,0,0,0,0,0,0,0,0,0,0,0,0,0,0,0,0],"id":11,"left_children":[1,3,5,7,9,11,13,-1,-1,15,17,19,21,-1,23,25,27,29,31,33,-1,35,37,39,-1,-1,-1,-1,-1,-1,-1,-1,-1,-1,-1,-1,-1,-1,-1,-1,-1],"loss_changes":[1.2756318E1,7.3529654E0,7.707503E0,4.5964727E0,6.7494473E0,6.690137E0,5.4757104E0,0E0,0E0,6.295679E0,8.193549E0,8.978966E0,6.728621E0,0E0,6.81026E0,8.865869E0,8.215508E0,1.6828508E0,5.1703644E0,5.849366E0,0E0,4.7755337E0,6.168957E0,5.841019E-1,0E0,0E0,0E0,0E0,0E0,0E0,0E0,0E0,0E0,0E0,0E0,0E0,0E0,0E0,0E0,0E0,0E0],"parents":[2147483647,0,0,1,1,2,2,3,3,4,4,5,5,6,6,9,9,10,10,11,11,12,12,14,14,15,15,16,16,17,17,18,18,19,19,21,21,22,22,23,23],"right_children":[2,4,6,8,10,12,14,-1,-1,16,18,20,22,-1,24,26,28,30,32,34,-1,36,38,40,-1,-1,-1,-1,-1,-1,-1,-1,-1,-1,-1,-1,-1,-1,-1,-1,-1],"split_conditions":[-1.1405664E-1,-1.607948E0,2.447856E0,-7.9407775E-1,3.3626912E0,-8.801952E-1,1.8032062E0,2.0419074E-2,-6.836011E-2,-2.813681E-1,-2.97293E-1,1.6389025E0,-1.9824202E0,7.459422E-2,-3.6156684E-1,1.1869418E-1,2.6330058E-2,5.315133E-1,-3.9241877E-1,8.497112E-1,6.4461805E-2,1.8672222E0,4.4079605E-1,1.7152791E0,-5.280108E-2,1.0445314E-2,4.3126658E-2,1.2917605E-2,-5.4273284E-3,1.5363148E-4,-6.896522E-2,-3.3172566E-2,2.6155725E-2,-1.5085367E-2,-5.313765E-2,-7.662931E-2,2.415399E-2,-6.376404E-4,-1.4736878E-2,5.8177914E-2,8.3527155E-3],"split_indices":[62,1,62,61,0,74,38,0,0,35,76,80,35,0,80,36,72,37,80,10,0,2,35,78,0,0,0,0,0,0,0,0,0,0,0,0,0,0,0,0,0],"split_type":[0,0,0,0,0,0,0,0,0,0,0,0,0,0,0,0,0,0,0,0,0,0,0,0,0,0,0,0,0,0,0,0,0,0,0,0,0,0,0,0,0],"sum_hessian":[8.589193E2,3.8215567E2,4.7676367E2,5.723641E0,3.7643204E2,4.6755478E2,9.208888E0,1.4917431E0,4.231898E0,3.559575E2,2.0474539E1,4.5676838E1,4.2187793E2,3.9784024E0,5.230486E0,1.1297581E2,2.4298169E2,6.9833126E0,1.3491226E1,4.3923E1,1.7538378E0,5.2219644E0,4.1665598E2,2.9844542E0,2.2460318E0,8.619205E1,2.678376E1,1.2780059E2,1.1518111E2,1.0026803E0,5.9806323E0,4.996803E0,8.494424E0,2.7953304E1,1.5969696E1,4.221132E0,1.0008323E0,3.1464102E2,1.02014946E2,1.7440157E0,1.2404385E0],"tree_param":{"num_deleted":"0","num_feature":"84","num_nodes":"41","size_leaf_vector":"1"}},{"base_weights":[8.284591E-3,5.572634E-2,-2.2825873E-1,2.0049559E-1,-1.9163273E-2,8.136856E-1,-2.8888568E-1,2.4159354E-1,-4.7461727E-1,-3.1510055E-2,7.242068E-2,7.085555E-2,1.3774668E-1,5.448834E-1,-3.514501E-1,1.3702059E-1,6.2135446E-1,4.757077E-2,-6.510772E-1,-1.10296095E-2,-8.055174E-1,4.259282E-2,-2.5454814E-2,1.3762885E-2,1.1270075E0,-4.5365864E-1,3.2970104E-2,3.330163E-2,4.141375E-3,-3.8230743E-2,3.6295526E-2,2.620894E-2,-4.3578804E-2,-5.149245E-3,9.834385E-3,9.246521E-3,-7.0363395E-2,2.6003841E-2,-5.590095E-2,7.157163E-2,-3.8106754E-4,4.7445144E-3,-2.7939085E-2,3.1723168E-2,-1.8235289E-2],"categories":[],"categories_nodes":[],"categories_segments":[],"categories_sizes":[],"default_left":[0,0,0,0,0,0,0,0,0,0,0,0,0,0,0,0,0,0,0,0,0,0,0,0,0,0,0,0,0,0,0,0,0,0,0,0,0,0,0,0,0,0,0,0,0],"id":12,"left_children":[1,3,5,7,9,11,13,15,17,19,-1,-1,21,23,25,27,29,-1,31,33,35,-1,-1,37,39,41,43,-1,-1,-1,-1,-1,-1,-1,-1,-1,-1,-1,-1,-1,-1,-1,-1,-1,-1],"loss_changes":[9.744077E0,7.843519E0,9.398651E0,6.957301E0,8.697577E0,3.1651254E0,7.3809814E0,9.173096E0,4.2654076E0,7.512566E0,0E0,0E0,2.740242E0,3.08006E0,5.0761003E0,5.2221212E0,7.808214E0,0E0,3.9519691E0,8.868882E0,7.5418015E0,0E0,0E0,4.1617036E0,1.6565804E0,5.924753E0,6.9258833E0,0E0,0E0,0E0,0E0,0E0,0E0,0E0,0E0,0E0,0E0,0E0,0E0,0E0,0E0,0E0,0E0,0E0,0E0],"parents":[2147483647,0,0,1,1,2,2,3,3,4,4,5,5,6,6,7,7,8,8,9,9,12,12,13,13,14,14,15,15,16,16,18,18,19,19,20,20,23,23,24,24,25,25,26,26],"right_children":[2,4,6,8,10,12,14,16,18,20,-1,-1,22,24,26,28,30,-1,32,34,36,-1,-1,38,40,42,44,-1,-1,-1,-1,-1,-1,-1,-1,-1,-1,-1,-1,-1,-1,-1,-1,-1,-1],"split_conditions":[1.0231308E0,-3.6318457E-1,-2.4647553E0,1.857758E-1,2.6642966E0,8.133349E-2,-2.0797691E0,-2.5003517E-1,-2.316089E-1,2.047754E0,7.242068E-2,7.085555E-2,6.137463E-1,-3.9501783E-1,7.317233E-1,-1.5043813E0,-6.359757E-1,4.757077E-2,-1.2593555E0,5.378649E-1,-2.4845222E-2,4.259282E-2,-2.5454814E-2,-2.5045446E-1,1.0402172E0,-1.0030147E0,-3.4812242E-1,3.330163E-2,4.141375E-3,-3.8230743E-2,3.6295526E-2,2.620894E-2,-4.3578804E-2,-5.149245E-3,9.834385E-3,9.246521E-3,-7.0363395E-2,2.6003841E-2,-5.590095E-2,7.157163E-2,-3.8106754E-4,4.7445144E-3,-2.7939085E-2,3.1723168E-2,-1.8235289E-2],"split_indices":[10,63,51,54,77,28,27,54,39,42,0,0,12,71,12,53,39,0,9,52,35,0,0,16,41,73,78,0,0,0,0,0,0,0,0,0,0,0,0,0,0,0,0,0,0],"split_type":[0,0,0,0,0,0,0,0,0,0,0,0,0,0,0,0,0,0,0,0,0,0,0,0,0,0,0,0,0,0,0,0,0,0,0,0,0,0,0,0,0,0,0,0,0],"sum_hessian":[8.661657E2,7.221032E2,1.440625E2,2.4561916E2,4.7648404E2,7.238547E0,1.3682394E2,2.3213022E2,1.3488945E1,4.7347916E2,3.0048695E0,3.245083E0,3.993464E0,9.012258E0,1.2781169E2,1.8307776E2,4.905245E1,1.0017537E0,1.2487192E1,4.6226184E2,1.1217324E1,1.7474015E0,2.2460625E0,5.2478495E0,3.7644083E0,1.00824615E2,2.6987078E1,1.5963014E1,1.6711475E2,2.9980505E0,4.6054398E1,1.7551308E0,1.0732061E1,3.2076514E2,1.4149672E2,4.5012293E0,6.716095E0,3.9992323E0,1.2486169E0,2.7618165E0,1.0025918E0,1.6230192E1,8.459442E1,1.050405E1,1.6483028E1],"tree_param":{"num_deleted":"0","num_feature":"84","num_nodes":"45","size_leaf_vector":"1"}},{"base_weights":[2.522542E-2,2.8200245E-1,-1.7211324E-2,-4.6978977E-2,5.926122E-1,9.7217107E-1,-2.7579846E-2,2.778668E-1,-3.6458686E-1,-4.735196E-2,8.057069E-1,6.8136714E-2,-1.1598865E-2,2.4655927E-2,-2.7597284E-1,8.3735514E-1,-2.6423496E-1,6.157582E-1,-5.1206964E-1,9.1600764E-1,-5.3451866E-1,9.115848E-1,-1.2032463E-1,9.5459265E-1,1.1055016E-2,-3.7213615E-1,3.6184382E-1,6.369152E-2,1.4154881E-2,1.2132003E-2,-5.8641683E-2,6.4181976E-2,-2.1712808E-2,-8.180786E-3,-4.9115416E-2,7.036447E-2,-8.774492E-3,-1.1072413E-3,-6.0998E-2,5.49603E-2,1.1414825E-2,4.7973357E-2,-4.7736663E-2,5.895548E-2,-1.092188E-2,2.3069851E-2,-5.9692626E-4,-3.16034E-2,1.3763863E-3,3.559481E-2,-3.9660387E-2],"categories":[],"categories_nodes":[],"categories_segments":[],"categories_sizes":[],"default_left":[0,0,0,0,0,0,0,0,0,0,0,0,0,0,0,0,0,0,0,0,0,0,0,0,0,0,0,0,0,0,0,0,0,0,0,0,0,0,0,0,0,0,0,0,0,0,0,0,0,0,0],"id":13,"left_children":[1,3,5,7,9,11,13,15,17,19,21,-1,-1,23,25,27,29,31,33,35,37,39,41,43,45,47,49,-1,-1,-1,-1,-1,-1,-1,-1,-1,-1,-1,-1,-1,-1,-1,-1,-1,-1,-1,-1,-1,-1,-1,-1],"loss_changes":[9.410441E0,1.2543063E1,7.6352515E0,6.3335795E0,8.639284E0,3.9466171E0,9.54287E0,9.450689E0,4.7938924E0,8.327018E0,4.75424E0,0E0,0E0,7.681603E0,7.9722595E0,3.3201342E0,7.752474E0,3.7164545E0,4.3405824E0,3.4521017E0,4.0899315E0,5.2138405E0,6.0911717E0,2.5633163E0,6.2228055E0,1.16043215E1,7.5388865E0,0E0,0E0,0E0,0E0,0E0,0E0,0E0,0E0,0E0,0E0,0E0,0E0,0E0,0E0,0E0,0E0,0E0,0E0,0E0,0E0,0E0,0E0,0E0,0E0],"parents":[2147483647,0,0,1,1,2,2,3,3,4,4,5,5,6,6,7,7,8,8,9,9,10,10,13,13,14,14,15,15,16,16,17,17,18,18,19,19,20,20,21,21,22,22,23,23,24,24,25,25,26,26],"right_children":[2,4,6,8,10,12,14,16,18,20,22,-1,-1,24,26,28,30,32,34,36,38,40,42,44,46,48,50,-1,-1,-1,-1,-1,-1,-1,-1,-1,-1,-1,-1,-1,-1,-1,-1,-1,-1,-1,-1,-1,-1,-1,-1],"split_conditions":[-8.2144624E-1,1.6640412E-2,-2.4647553E0,-9.479386E-1,-4.3700424E-1,8.733694E-1,1.0231308E0,-2.1428585E-1,-6.4871E-1,-1.046042E0,1.5096955E-1,6.8136714E-2,-1.1598865E-2,-1.1220306E0,5.1531905E-1,4.7948042E-1,1.4763236E0,-3.293128E-1,-7.3845345E-1,-1.7578207E-1,6.570732E-1,9.584125E-1,-8.281861E-1,2.3732783E-1,-1.8741903E0,5.911556E-1,1.1645108E0,6.369152E-2,1.4154881E-2,1.2132003E-2,-5.8641683E-2,6.4181976E-2,-2.1712808E-2,-8.180786E-3,-4.9115416E-2,7.036447E-2,-8.774492E-3,-1.1072413E-3,-6.0998E-2,5.49603E-2,1.1414825E-2,4.7973357E-2,-4.7736663E-2,5.895548E-2,-1.092188E-2,2.3069851E-2,-5.9692626E-4,-3.16034E-2,1.3763863E-3,3.559481E-2,-3.9660387E-2],"split_indices":[42,29,51,44,37,39,10,35,77,38,49,0,0,77,77,13,77,44,17,45,20,2,71,15,13,14,39,0,0,0,0,0,0,0,0,0,0,0,0,0,0,0,0,0,0,0,0,0,0,0,0],"split_type":[0,0,0,0,0,0,0,0,0,0,0,0,0,0,0,0,0,0,0,0,0,0,0,0,0,0,0,0,0,0,0,0,0,0,0,0,0,0,0,0,0,0,0,0,0,0,0,0,0,0,0],"sum_hessian":[8.621529E2,1.2147635E2,7.406765E2,5.940571E1,6.2070637E1,6.7195926E0,7.339569E2,2.9430079E1,2.9975632E1,1.5699583E1,4.637105E1,4.974442E0,1.7451504E0,6.071724E2,1.2678451E2,1.4214766E1,1.5215314E1,3.5046253E0,2.6471004E1,4.9771404E0,1.0722443E1,4.1627205E1,4.7438493E0,7.75497E0,5.994175E2,1.1053565E2,1.6248856E1,7.2260327E0,6.988733E0,1.023726E1,4.9780536E0,2.0061066E0,1.4985188E0,1.597858E1,1.0492425E1,3.2327597E0,1.744381E0,6.726573E0,3.9958696E0,3.2181835E1,9.445368E0,2.0025334E0,2.7413158E0,6.504779E0,1.2501915E0,2.8192108E1,5.7122534E2,6.6623695E1,4.3911957E1,1.2764182E1,3.4846733E0],"tree_param":{"num_deleted":"0","num_feature":"84","num_nodes":"51","size_leaf_vector":"1"}},{"base_weights":[1.0768073E-2,-1.7565683E-2,3.7057036E-1,5.6909334E-2,-1.4613467E-1,4.612295E-1,-6.6627586E-1,7.222753E-2,-9.788432E-1,-3.0627283E-1,6.431129E-2,5.308467E-1,-7.9184365E-1,1.6211476E-2,-6.642827E-2,3.425809E-2,5.157636E-1,-6.939327E-2,1.1425096E-2,-7.151555E-2,-5.548683E-1,-9.8482287E-1,1.4471316E-1,-2.3852687E-2,7.5094366E-1,-9.209628E-3,-5.2308876E-2,2.7580534E-3,-3.7065357E-2,-5.4329927E-3,3.328167E-2,1.1992357E-2,-3.192341E-2,-6.1562985E-2,-2.1000167E-2,1.84035E-2,-7.053608E-2,4.263523E-2,2.052026E-3,2.2861851E-2,-5.5552226E-2,-7.5242356E-3,4.7224715E-2],"categories":[],"categories_nodes":[],"categories_segments":[],"categories_sizes":[],"default_left":[0,0,0,0,0,0,0,0,0,0,0,0,0,0,0,0,0,0,0,0,0,0,0,0,0,0,0,0,0,0,0,0,0,0,0,0,0,0,0,0,0,0,0],"id":14,"left_children":[1,3,5,7,9,11,13,15,17,19,21,23,25,-1,-1,27,29,-1,-1,31,33,35,37,39,41,-1,-1,-1,-1,-1,-1,-1,-1,-1,-1,-1,-1,-1,-1,-1,-1,-1,-1],"loss_changes":[8.80476E0,7.6779213E0,6.2336426E0,8.129152E0,9.93021E0,5.5295477E0,4.024619E0,8.426999E0,4.0065255E0,9.716452E0,1.0931519E1,6.865077E0,3.457327E-1,0E0,0E0,7.546391E0,3.7660446E0,0E0,0E0,1.5533547E1,6.875952E0,5.8389635E0,8.748814E0,9.3478775E0,7.1529408E0,0E0,0E0,0E0,0E0,0E0,0E0,0E0,0E0,0E0,0E0,0E0,0E0,0E0,0E0,0E0,0E0,0E0,0E0],"parents":[2147483647,0,0,1,1,2,2,3,3,4,4,5,5,6,6,7,7,8,8,9,9,10,10,11,11,12,12,15,15,16,16,19,19,20,20,21,21,22,22,23,23,24,24],"right_children":[2,4,6,8,10,12,14,16,18,20,22,24,26,-1,-1,28,30,-1,-1,32,34,36,38,40,42,-1,-1,-1,-1,-1,-1,-1,-1,-1,-1,-1,-1,-1,-1,-1,-1,-1,-1],"split_conditions":[1.3707849E0,1.7722553E-1,2.2879982E0,7.86417E-1,-1.6625486E-1,2.5876136E0,-2.052237E-2,3.1011721E-1,6.6457406E-2,-6.709363E-2,2.476172E-1,-5.396825E-1,2.491387E0,1.6211476E-2,-6.642827E-2,1.041029E0,-3.635455E-1,-6.939327E-2,1.1425096E-2,3.9612672E-1,-6.314021E-1,-5.223604E-1,-3.6324456E-1,1.0506214E0,5.70759E-1,-9.209628E-3,-5.2308876E-2,2.7580534E-3,-3.7065357E-2,-5.4329927E-3,3.328167E-2,1.1992357E-2,-3.192341E-2,-6.1562985E-2,-2.1000167E-2,1.84035E-2,-7.053608E-2,4.263523E-2,2.052026E-3,2.2861851E-2,-5.5552226E-2,-7.5242356E-3,4.7224715E-2],"split_indices":[29,47,78,63,77,63,35,15,47,11,47,79,47,0,0,31,12,0,0,16,79,76,41,52,40,0,0,0,0,0,0,0,0,0,0,0,0,0,0,0,0,0,0],"split_type":[0,0,0,0,0,0,0,0,0,0,0,0,0,0,0,0,0,0,0,0,0,0,0,0,0,0,0,0,0,0,0,0,0,0,0,0,0,0,0,0,0,0,0],"sum_hessian":[8.6203467E2,7.999883E2,6.20464E1,5.069115E2,2.9307675E2,5.7567966E1,4.4784327E0,5.0044055E2,6.4709682E0,1.6617278E2,1.26903984E2,5.508402E1,2.483947E0,1.9990859E0,2.4793468E0,4.6197028E2,3.8470284E1,4.721805E0,1.7491629E0,8.612739E1,8.0045395E1,8.232492E0,1.1867149E2,1.5901041E1,3.9182976E1,1.2416437E0,1.2423033E0,4.5075055E2,1.121972E1,7.499412E0,3.0970871E1,5.596766E1,3.0159725E1,1.1955436E1,6.808996E1,2.003628E0,6.2288647E0,1.4234898E1,1.044366E2,1.1424886E1,4.4761558E0,6.965392E0,3.2217583E1],"tree_param":{"num_deleted":"0","num_feature":"84","num_nodes":"43","size_leaf_vector":"1"}},{"base_weights":[6.0283467E-3,5.5833284E-2,-1.4492916E-1,3.3132777E-2,5.753576E-1,3.6852848E-2,-4.488362E-1,1.953691E-2,9.356102E-1,1.0313799E0,-3.513625E-1,1.7364755E-1,-7.6280355E-1,-1.9649191E-1,-8.382191E-1,-3.331356E-2,2.7968857E-1,1.165422E0,-2.393539E-2,-1.0335792E-1,1.2355196E0,-1.069155E0,5.4187256E-1,-1.5495037E-1,4.382293E-1,5.168096E-1,-9.54597E-1,-7.316383E-1,1.8117483E-1,-1.0336885E0,7.628379E-1,-2.7159417E-2,-2.3630592E-4,2.3778623E-2,-1.7633857E-2,4.8013944E-3,7.189081E-2,5.5710126E-2,-5.8359172E-2,6.822806E-2,3.1653445E-4,1.1529721E-2,-7.411043E-2,-2.777573E-2,6.533178E-2,6.651868E-3,-3.311854E-2,1.4185332E-2,4.9514964E-2,5.1587224E-2,-8.645206E-3,-6.0209256E-2,-1.3219108E-2,1.0181469E-2,-4.6555296E-2,-6.6573635E-2,1.8245315E-2,2.5208969E-2,-5.6886923E-2,-7.2830035E-3,6.1079413E-2],"categories":[],"categories_nodes":[],"categories_segments":[],"categories_sizes":[],"default_left":[0,0,0,0,0,0,0,0,0,0,0,0,0,0,0,0,0,0,0,0,0,0,0,0,0,0,0,0,0,0,0,0,0,0,0,0,0,0,0,0,0,0,0,0,0,0,0,0,0,0,0,0,0,0,0,0,0,0,0,0,0],"id":15,"left_children":[1,3,5,7,9,11,13,15,17,19,21,23,25,27,29,31,33,35,-1,37,39,41,43,45,47,49,51,53,55,57,59,-1,-1,-1,-1,-1,-1,-1,-1,-1,-1,-1,-1,-1,-1,-1,-1,-1,-1,-1,-1,-1,-1,-1,-1,-1,-1,-1,-1,-1,-1],"loss_changes":[6.5013504E0,7.648049E0,1.186824E1,7.6376743E0,1.1838774E1,1.4917539E1,7.732294E0,8.474934E0,3.5608644E0,4.402565E0,6.799803E0,1.0173182E1,5.3844547E0,1.0252516E1,1.058326E1,7.4698124E0,1.3059004E1,2.2618885E0,0E0,6.140332E0,2.4844608E0,3.410294E0,4.9105906E0,7.7720633E0,5.2340593E0,1.3314145E0,2.7278633E0,4.0914793E0,8.867108E0,5.1047153E0,1.8369687E0,0E0,0E0,0E0,0E0,0E0,0E0,0E0,0E0,0E0,0E0,0E0,0E0,0E0,0E0,0E0,0E0,0E0,0E0,0E0,0E0,0E0,0E0,0E0,0E0,0E0,0E0,0E0,0E0,0E0,0E0],"parents":[2147483647,0,0,1,1,2,2,3,3,4,4,5,5,6,6,7,7,8,8,9,9,10,10,11,11,12,12,13,13,14,14,15,15,16,16,17,17,19,19,20,20,21,21,22,22,23,23,24,24,25,25,26,26,27,27,28,28,29,29,30,30],"right_children":[2,4,6,8,10,12,14,16,18,20,22,24,26,28,30,32,34,36,-1,38,40,42,44,46,48,50,52,54,56,58,60,-1,-1,-1,-1,-1,-1,-1,-1,-1,-1,-1,-1,-1,-1,-1,-1,-1,-1,-1,-1,-1,-1,-1,-1,-1,-1,-1,-1,-1,-1],"split_conditions":[4.4079605E-1,3.7747002E-1,1.3989389E-1,1.2989289E0,3.6688575E-1,9.8534393E-1,4.4886106E-1,5.2151275E-1,7.412031E-1,-1.0171173E0,5.7193357E-1,-3.6078346E-1,-6.989304E-1,-4.0440863E-1,2.175704E0,-1.1409605E0,1.4327297E0,-5.668978E-1,-2.393539E-2,1.7110638E-1,1.0205476E0,-7.232492E-1,-2.085437E-1,-4.6771327E-1,1.0037837E0,4.326987E-1,8.6873746E-1,-7.292304E-1,-3.708676E-1,-2.2005592E-1,3.9241314E-1,-2.7159417E-2,-2.3630592E-4,2.3778623E-2,-1.7633857E-2,4.8013944E-3,7.189081E-2,5.5710126E-2,-5.8359172E-2,6.822806E-2,3.1653445E-4,1.1529721E-2,-7.411043E-2,-2.777573E-2,6.533178E-2,6.651868E-3,-3.311854E-2,1.4185332E-2,4.9514964E-2,5.1587224E-2,-8.645206E-3,-6.0209256E-2,-1.3219108E-2,1.0181469E-2,-4.6555296E-2,-6.6573635E-2,1.8245315E-2,2.5208969E-2,-5.6886923E-2,-7.2830035E-3,6.1079413E-2],"split_indices":[35,35,74,14,41,42,17,78,39,68,39,78,37,38,77,37,19,74,0,34,74,3,29,75,17,78,27,11,3,3,69,0,0,0,0,0,0,0,0,0,0,0,0,0,0,0,0,0,0,0,0,0,0,0,0,0,0,0,0,0,0],"split_type":[0,0,0,0,0,0,0,0,0,0,0,0,0,0,0,0,0,0,0,0,0,0,0,0,0,0,0,0,0,0,0,0,0,0,0,0,0,0,0,0,0,0,0,0,0,0,0,0,0,0,0,0,0,0,0,0,0,0,0,0,0],"sum_hessian":[8.626457E2,6.4911523E2,2.1353044E2,6.22959E2,2.6156288E1,1.3416086E2,7.9369576E1,6.1471985E2,8.239136E0,1.745437E1,8.701919E0,1.1523142E2,1.8929432E1,4.90723E1,3.0297277E1,5.11649E2,1.0307085E2,7.2388773E0,1.0002584E0,2.7365544E0,1.4717815E1,4.7155857E0,3.986333E0,5.1582623E1,6.3648804E1,2.2465067E0,1.6682924E1,1.9915361E1,2.9156939E1,2.7316624E1,2.9806538E0,2.6208218E1,4.8544077E2,7.8883545E1,2.41873E1,1.7441278E0,5.4947495E0,1.2539918E0,1.4825627E0,1.3219852E1,1.4979631E0,1.2437209E0,3.4718647E0,1.7495091E0,2.2368238E0,3.337715E1,1.8205471E1,5.091246E1,1.2736342E1,1.0022969E0,1.2442098E0,1.1705466E1,4.9774585E0,3.4971225E0,1.641824E1,2.481348E0,2.667559E1,1.4873852E0,2.5829237E1,1.2290864E0,1.7515675E0],"tree_param":{"num_deleted":"0","num_feature":"84","num_nodes":"61","size_leaf_vector":"1"}},{"base_weights":[-1.4637669E-2,3.2183502E-2,-1.8496446E-1,2.0559402E-1,-3.1779215E-2,9.7874236E-1,-2.2273321E-1,5.208132E-1,2.4517206E-2,-8.271616E-2,3.233927E-1,6.6570155E-2,-1.0146541E-2,-8.9612067E-1,-1.3558756E-1,6.648364E-1,-4.392444E-1,-4.1904467E-1,2.140499E-1,-3.415048E-2,-4.0715498E-1,4.683409E-1,-5.372513E-1,-9.7686064E-1,9.512851E-3,-4.585782E-1,-1.2197619E-2,-2.4260975E-2,4.0954918E-2,-5.2273463E-2,3.6330193E-2,-4.6886507E-2,2.3216028E-3,-1.9576647E-3,2.6322005E-2,-5.059285E-2,-8.1725646E-4,1.8133923E-2,-3.2055065E-2,5.766156E-2,1.5632555E-2,1.2794852E-2,-4.9361672E-2,-1.2977014E-2,-5.9752997E-2,3.448605E-2,-3.2366198E-2,1.6844388E-2,-9.612119E-3],"categories":[],"categories_nodes":[],"categories_segments":[],"categories_sizes":[],"default_left":[0,0,0,0,0,0,0,0,0,0,0,0,0,0,0,0,0,0,0,0,0,0,0,0,0,0,0,0,0,0,0,0,0,0,0,0,0,0,0,0,0,0,0,0,0,0,0,0,0],"id":16,"left_children":[1,3,5,7,9,11,13,15,17,19,21,-1,-1,23,25,27,29,31,33,35,37,39,41,43,-1,45,47,-1,-1,-1,-1,-1,-1,-1,-1,-1,-1,-1,-1,-1,-1,-1,-1,-1,-1,-1,-1,-1,-1],"loss_changes":[6.8435106E0,7.4754047E0,8.349795E0,1.035162E1,8.941965E0,2.7711577E0,1.044228E1,9.445711E0,9.873602E0,6.7894087E0,7.987608E0,0E0,0E0,1.979496E0,6.393582E0,1.0680717E1,7.2886543E0,8.53702E0,6.5224676E0,6.5403304E0,1.0340826E1,5.3557043E0,3.6090696E0,2.6945438E0,0E0,1.0060235E1,7.4314876E0,0E0,0E0,0E0,0E0,0E0,0E0,0E0,0E0,0E0,0E0,0E0,0E0,0E0,0E0,0E0,0E0,0E0,0E0,0E0,0E0,0E0,0E0],"parents":[2147483647,0,0,1,1,2,2,3,3,4,4,5,5,6,6,7,7,8,8,9,9,10,10,13,13,14,14,15,15,16,16,17,17,18,18,19,19,20,20,21,21,22,22,23,23,25,25,26,26],"right_children":[2,4,6,8,10,12,14,16,18,20,22,-1,-1,24,26,28,30,32,34,36,38,40,42,44,-1,46,48,-1,-1,-1,-1,-1,-1,-1,-1,-1,-1,-1,-1,-1,-1,-1,-1,-1,-1,-1,-1,-1,-1],"split_conditions":[9.3401134E-1,-4.5482048E-1,-1.8529178E0,-1.0365415E-2,1.3066161E0,6.4147633E-1,-9.507862E-1,9.1416055E-1,-9.9180855E-2,2.032245E0,4.935601E-1,6.6570155E-2,-1.0146541E-2,2.769135E-1,-2.0206529E-1,-1.6639546E0,7.324271E-1,3.6888644E-1,5.142111E-2,-2.1454906E0,-7.431611E-1,-3.832447E-1,-5.1571286E-1,-1.7228727E-1,9.512851E-3,-1.0870615E0,-3.0545366E-1,-2.4260975E-2,4.0954918E-2,-5.2273463E-2,3.6330193E-2,-4.6886507E-2,2.3216028E-3,-1.9576647E-3,2.6322005E-2,-5.059285E-2,-8.1725646E-4,1.8133923E-2,-3.2055065E-2,5.766156E-2,1.5632555E-2,1.2794852E-2,-4.9361672E-2,-1.2977014E-2,-5.9752997E-2,3.448605E-2,-3.2366198E-2,1.6844388E-2,-9.612119E-3],"split_indices":[10,40,5,78,29,14,41,5,28,70,79,0,0,9,13,27,35,13,11,35,5,41,74,12,0,27,63,0,0,0,0,0,0,0,0,0,0,0,0,0,0,0,0,0,0,0,0,0,0],"split_type":[0,0,0,0,0,0,0,0,0,0,0,0,0,0,0,0,0,0,0,0,0,0,0,0,0,0,0,0,0,0,0,0,0,0,0,0,0,0,0,0,0,0,0,0,0,0,0,0,0],"sum_hessian":[8.5638477E2,6.723683E2,1.8401643E2,1.8058006E2,4.9178827E2,5.001431E0,1.79015E2,6.5201256E1,1.1537881E2,4.307757E2,6.1012547E1,3.7542849E0,1.2471462E0,1.9448732E1,1.5956627E2,5.6963387E1,8.237865E0,3.417901E1,8.11998E1,3.756495E2,5.512621E1,5.260819E1,8.404358E0,1.8197124E1,1.2516075E0,4.335691E1,1.1620935E2,6.483332E0,5.0480057E1,5.487629E0,2.7502365E0,1.5685707E1,1.8493301E1,4.5331608E1,3.586819E1,5.7201924E0,3.699293E2,1.2719764E1,4.2406445E1,8.557207E0,4.4050983E1,3.198293E0,5.206064E0,4.754938E0,1.3442186E1,5.7458467E0,3.7611065E1,3.9245625E1,7.696373E1],"tree_param":{"num_deleted":"0","num_feature":"84","num_nodes":"49","size_leaf_vector":"1"}},{"base_weights":[-8.029579E-3,9.963295E-1,-1.6551808E-2,6.40196E-2,-2.4848506E-3,-2.5717631E-2,9.0248877E-1,8.430976E-3,-2.8098634E-1,-1.0249379E-2,1.1235588E0,-2.910458E-3,8.622545E-1,6.495144E-2,-5.834671E-1,4.722481E-3,6.599545E-2,-1.0877082E-3,2.1310387E-2,5.7261556E-2,-2.0695856E-2,-3.1179756E-2,1.6881328E-2,7.507863E-3,-3.4917682E-2],"categories":[],"categories_nodes":[],"categories_segments":[],"categories_sizes":[],"default_left":[0,0,0,0,0,0,0,0,0,0,0,0,0,0,0,0,0,0,0,0,0,0,0,0,0],"id":17,"left_children":[1,3,5,-1,-1,7,9,11,13,-1,15,17,19,21,23,-1,-1,-1,-1,-1,-1,-1,-1,-1,-1],"loss_changes":[7.304744E0,2.1972752E0,7.143926E0,0E0,0E0,7.306732E0,2.2807589E0,7.1687446E0,1.0386553E1,0E0,1.3172112E0,5.9229765E0,3.9785967E0,9.041309E0,4.560375E0,0E0,0E0,0E0,0E0,0E0,0E0,0E0,0E0,0E0,0E0],"parents":[2147483647,0,0,1,1,2,2,5,5,6,6,7,7,8,8,10,10,11,11,12,12,13,13,14,14],"right_children":[2,4,6,-1,-1,8,10,12,14,-1,16,18,20,22,24,-1,-1,-1,-1,-1,-1,-1,-1,-1,-1],"split_conditions":[-2.4647553E0,8.733694E-1,3.1608543E0,6.40196E-2,-2.4848506E-3,2.032245E0,1.579773E-1,1.2989289E0,-2.65106E-1,-1.0249379E-2,-3.1093588E-1,1.7781762E0,1.4206494E0,-1.0262796E0,-5.209196E-1,4.722481E-3,6.599545E-2,-1.0877082E-3,2.1310387E-2,5.7261556E-2,-2.0695856E-2,-3.1179756E-2,1.6881328E-2,7.507863E-3,-3.4917682E-2],"split_indices":[51,39,52,0,0,70,77,14,5,0,62,45,77,9,40,0,0,0,0,0,0,0,0,0,0],"split_type":[0,0,0,0,0,0,0,0,0,0,0,0,0,0,0,0,0,0,0,0,0,0,0,0,0],"sum_hessian":[8.504934E2,6.180676E0,8.4431274E2,4.684488E0,1.4961882E0,8.3693774E2,7.374976E0,7.390396E2,9.789816E1,1.2393007E0,6.1356754E0,7.303351E2,8.704533E0,4.603484E1,5.1863327E1,1.2203918E0,4.9152837E0,7.005226E2,2.9812479E1,7.2086906E0,1.4958417E0,1.2693882E1,3.3340958E1,6.9806156E0,4.488271E1],"tree_param":{"num_deleted":"0","num_feature":"84","num_nodes":"25","size_leaf_vector":"1"}},{"base_weights":[2.0739103E-2,1.17952466E-1,-7.8709E-2,2.0789978E-1,-5.806157E-2,-6.268422E-1,-4.236127E-2,-9.982694E-2,3.0764288E-1,-6.102157E-1,2.9477369E-2,5.0044086E-2,-7.298546E-1,-8.780305E-2,3.4426558E-1,9.53775E-2,-9.9206316E-1,-3.5851493E-2,3.9248413E-1,-8.9103085E-1,8.776452E-1,3.137468E-1,-2.113634E-1,2.9547011E-2,-8.6484593E-1,5.7415056E-1,-1.1909429E-1,9.261577E-1,8.275324E-2,-7.2196516E-4,5.431214E-2,-6.260051E-2,8.732806E-3,3.355981E-2,-2.5384057E-2,-5.259159E-2,2.0859716E-2,-5.317312E-2,1.0297809E-2,2.2660133E-5,5.9840005E-2,-2.6364968E-4,3.7293855E-2,-1.6610852E-2,3.5665955E-2,-5.4624196E-2,1.3718316E-2,3.945585E-2,-5.686369E-2,-2.894133E-3,-2.2054978E-2,6.907239E-2,1.4457372E-2,2.9539749E-2,-1.3139873E-2],"categories":[],"categories_nodes":[],"categories_segments":[],"categories_sizes":[],"default_left":[0,0,0,0,0,0,0,0,0,0,0,0,0,0,0,0,0,0,0,0,0,0,0,0,0,0,0,0,0,0,0,0,0,0,0,0,0,0,0,0,0,0,0,0,0,0,0,0,0,0,0,0,0,0,0],"id":18,"left_children":[1,3,5,7,9,11,13,15,17,19,21,-1,23,25,27,29,31,33,35,37,39,41,43,-1,45,47,49,51,53,-1,-1,-1,-1,-1,-1,-1,-1,-1,-1,-1,-1,-1,-1,-1,-1,-1,-1,-1,-1,-1,-1,-1,-1,-1,-1],"loss_changes":[8.379387E0,6.949808E0,8.512044E0,8.938828E0,7.2190785E0,5.1872444E0,7.1103973E0,1.2599685E1,6.408766E0,9.319487E0,8.935736E0,0E0,5.0711412E0,7.5542855E0,6.403892E0,6.525192E0,4.154149E0,1.5145826E1,6.721895E0,3.564354E0,1.0487678E0,8.250611E0,8.141059E0,0E0,6.4225197E0,6.9621277E0,6.792718E0,3.4018211E0,5.506189E0,0E0,0E0,0E0,0E0,0E0,0E0,0E0,0E0,0E0,0E0,0E0,0E0,0E0,0E0,0E0,0E0,0E0,0E0,0E0,0E0,0E0,0E0,0E0,0E0,0E0,0E0],"parents":[2147483647,0,0,1,1,2,2,3,3,4,4,5,5,6,6,7,7,8,8,9,9,10,10,12,12,13,13,14,14,15,15,16,16,17,17,18,18,19,19,20,20,21,21,22,22,24,24,25,25,26,26,27,27,28,28],"right_children":[2,4,6,8,10,12,14,16,18,20,22,-1,24,26,28,30,32,34,36,38,40,42,44,-1,46,48,50,52,54,-1,-1,-1,-1,-1,-1,-1,-1,-1,-1,-1,-1,-1,-1,-1,-1,-1,-1,-1,-1,-1,-1,-1,-1,-1,-1],"split_conditions":[-1.342806E-1,1.441295E-1,-3.916398E-1,-1.2999691E0,-1.4293065E0,-1.345273E0,1.5735676E0,-7.7464956E-1,-7.353819E-1,8.490004E-2,-4.907245E-1,5.0044086E-2,-1.6067796E0,-1.4366587E0,7.603671E-1,-1.4347385E-1,-1.3086319E-1,-1.1732165E0,-1.4729632E0,1.2056774E0,1.0313799E-1,-6.851252E-1,5.54127E-1,2.9547011E-2,1.4373717E0,1.2251326E0,1.0072883E0,1.2761116E0,-5.751612E-1,-7.2196516E-4,5.431214E-2,-6.260051E-2,8.732806E-3,3.355981E-2,-2.5384057E-2,-5.259159E-2,2.0859716E-2,-5.317312E-2,1.0297809E-2,2.2660133E-5,5.9840005E-2,-2.6364968E-4,3.7293855E-2,-1.6610852E-2,3.5665955E-2,-5.4624196E-2,1.3718316E-2,3.945585E-2,-5.686369E-2,-2.894133E-3,-2.2054978E-2,6.907239E-2,1.4457372E-2,2.9539749E-2,-1.3139873E-2],"split_indices":[32,54,53,72,27,15,29,5,74,79,53,0,67,72,15,44,53,74,75,54,75,29,2,0,73,48,27,55,11,0,0,0,0,0,0,0,0,0,0,0,0,0,0,0,0,0,0,0,0,0,0,0,0,0,0],"split_type":[0,0,0,0,0,0,0,0,0,0,0,0,0,0,0,0,0,0,0,0,0,0,0,0,0,0,0,0,0,0,0,0,0,0,0,0,0,0,0,0,0,0,0,0,0,0,0,0,0,0,0,0,0,0,0],"sum_hessian":[8.6478156E2,4.3721008E2,4.2757144E2,2.8922708E2,1.4798299E2,2.5579548E1,4.019919E2,7.0798676E1,2.1842842E2,1.943369E1,1.285493E2,1.0037007E0,2.4575846E1,3.6040497E2,4.1586918E1,5.882252E1,1.1976154E1,4.3378914E1,1.750495E2,1.6685621E1,2.7480695E0,5.8820045E1,6.9729256E1,1.9656585E0,2.2610188E1,1.5484657E1,3.4492032E2,1.2106703E1,2.9480217E1,5.3840816E1,4.9817066E0,9.734244E0,2.241909E0,1.7192705E1,2.6186207E1,2.2452836E0,1.7280423E2,1.4445538E1,2.2400827E0,1.0002685E0,1.747801E0,3.4406944E1,2.44131E1,6.2235905E1,7.4933505E0,1.887883E1,3.7313588E0,1.4235495E1,1.249162E0,2.9081717E2,5.410316E1,6.378884E0,5.727819E0,1.16468525E1,1.7833364E1],"tree_param":{"num_deleted":"0","num_feature":"84","num_nodes":"55","size_leaf_vector":"1"}},{"base_weights":[-1.9238329E-2,8.676928E-2,-1.11490645E-1,-2.924445E-1,1.2743296E-1,8.693347E-1,-1.2687492E-1,-5.543828E-1,1.0049176E0,5.9170183E-2,4.609014E-1,-5.753878E-3,6.655989E-2,-7.690493E-2,-4.2764297E-1,3.2982185E-1,-7.2290754E-1,6.763244E-2,-1.6958274E-2,2.294418E-1,-1.5859985E-1,-4.1037107E-1,6.3779247E-1,-9.984295E-2,5.710013E-1,-6.504738E-2,-7.373726E-1,4.7810268E-2,-3.0811949E-2,2.0793578E-2,-4.573217E-2,7.6861917E-3,4.3403637E-2,-5.113542E-3,-6.2356163E-2,-4.65165E-2,4.2172123E-2,3.9582714E-2,-2.259506E-2,-3.5803262E-4,-1.37757035E-2,4.5467827E-2,-2.7982011E-2,-4.0773474E-2,1.1722884E-2,-6.108541E-2,-1.7412998E-2],"categories":[],"categories_nodes":[],"categories_segments":[],"categories_sizes":[],"default_left":[0,0,0,0,0,0,0,0,0,0,0,0,0,0,0,0,0,0,0,0,0,0,0,0,0,0,0,0,0,0,0,0,0,0,0,0,0,0,0,0,0,0,0,0,0,0,0],"id":19,"left_children":[1,3,5,7,9,11,13,15,17,19,21,-1,-1,23,25,27,29,-1,-1,31,33,35,37,39,41,43,45,-1,-1,-1,-1,-1,-1,-1,-1,-1,-1,-1,-1,-1,-1,-1,-1,-1,-1,-1,-1],"loss_changes":[8.387788E0,6.1929646E0,7.028883E0,1.3798294E1,8.195626E0,3.4304242E0,6.764927E0,5.1652126E0,3.684124E0,1.1197421E1,9.699106E0,0E0,0E0,5.8394146E0,7.1644363E0,4.132743E0,6.512315E0,0E0,0E0,8.054636E0,8.007083E0,7.918425E0,8.957367E0,6.1301465E0,5.6553183E0,7.087172E0,6.083683E0,0E0,0E0,0E0,0E0,0E0,0E0,0E0,0E0,0E0,0E0,0E0,0E0,0E0,0E0,0E0,0E0,0E0,0E0,0E0,0E0],"parents":[2147483647,0,0,1,1,2,2,3,3,4,4,5,5,6,6,7,7,8,8,9,9,10,10,13,13,14,14,15,15,16,16,19,19,20,20,21,21,22,22,23,23,24,24,25,25,26,26],"right_children":[2,4,6,8,10,12,14,16,18,20,22,-1,-1,24,26,28,30,-1,-1,32,34,36,38,40,42,44,46,-1,-1,-1,-1,-1,-1,-1,-1,-1,-1,-1,-1,-1,-1,-1,-1,-1,-1,-1,-1],"split_conditions":[-2.2171078E-2,-1.5193484E0,-1.6629441E0,4.139076E-1,7.569821E-1,-4.3843567E-1,1.014305E0,-2.1179817E0,-1.6606743E0,-1.342806E-1,-5.346029E-1,-5.753878E-3,6.655989E-2,5.0990195E0,-5.796625E-2,-6.915849E-1,-1.6058481E0,6.763244E-2,-1.6958274E-2,8.012838E-1,1.0506214E0,1.5042963E-2,6.3059753E-1,4.6781868E-1,1.112016E0,-6.99406E-3,8.888491E-2,4.7810268E-2,-3.0811949E-2,2.0793578E-2,-4.573217E-2,7.6861917E-3,4.3403637E-2,-5.113542E-3,-6.2356163E-2,-4.65165E-2,4.2172123E-2,3.9582714E-2,-2.259506E-2,-3.5803262E-4,-1.37757035E-2,4.5467827E-2,-2.7982011E-2,-4.0773474E-2,1.1722884E-2,-6.108541E-2,-1.7412998E-2],"split_indices":[39,35,67,9,37,78,10,5,35,32,67,0,0,81,45,48,26,0,0,9,52,8,11,35,7,49,48,0,0,0,0,0,0,0,0,0,0,0,0,0,0,0,0,0,0,0,0],"split_type":[0,0,0,0,0,0,0,0,0,0,0,0,0,0,0,0,0,0,0,0,0,0,0,0,0,0,0,0,0,0,0,0,0,0,0,0,0,0,0,0,0,0,0,0,0,0,0],"sum_hessian":[8.557063E2,3.9819632E2,4.5750998E2,3.796428E1,3.6023203E2,6.208038E0,4.5130194E2,3.206335E1,5.900928E0,2.9999823E2,6.0233803E1,2.2222939E0,3.9857438E0,3.880813E2,6.3220627E1,4.9795995E0,2.7083752E1,4.6830034E0,1.2179246E0,1.6832974E2,1.3166849E2,9.942477E0,5.0291325E1,3.7562872E2,1.2452598E1,2.9682178E1,3.353845E1,2.9895236E0,1.990076E0,3.7344873E0,2.3349264E1,1.5159671E2,1.6733044E1,1.2623026E2,5.4382215E0,7.2103367E0,2.7321408E0,4.4308582E1,5.9827437E0,2.4657762E2,1.2905109E2,9.735017E0,2.7175806E0,7.9757905E0,2.1706388E1,1.3987821E1,1.9550627E1],"tree_param":{"num_deleted":"0","num_feature":"84","num_nodes":"47","size_leaf_vector":"1"}},{"base_weights":[2.0460026E-2,1.2007257E-2,1.0028157E0,6.5801956E-2,-1.938851E-1,-7.6996977E-3,6.3244805E-2,5.4412916E-2,6.7053825E-1,-6.482588E-1,-5.5351183E-2,5.9598144E-2,4.8331242E-2,1.0822774E0,-5.000035E-2,2.7761728E-1,-8.8664263E-1,5.422959E-1,-1.9160701E-1,1.644014E-3,2.4489619E-2,-1.1244062E-2,6.4163856E-2,-2.7211368E-2,4.0662732E-2,-1.0145E-2,-6.369709E-2,-4.0631037E-2,3.6930654E-2,-3.1111443E-3,-2.7144397E-2],"categories":[],"categories_nodes":[],"categories_segments":[],"categories_sizes":[],"default_left":[0,0,0,0,0,0,0,0,0,0,0,0,0,0,0,0,0,0,0,0,0,0,0,0,0,0,0,0,0,0,0],"id":20,"left_children":[1,3,5,7,9,-1,-1,11,13,15,17,-1,19,21,-1,23,25,27,29,-1,-1,-1,-1,-1,-1,-1,-1,-1,-1,-1,-1],"loss_changes":[7.1305823E0,9.469985E0,2.415937E0,4.6312456E0,1.1113848E1,0E0,0E0,4.551888E0,9.638445E0,9.360231E0,1.1246984E1,0E0,4.5115614E0,3.036807E0,0E0,4.4997907E0,8.500784E0,7.4272614E0,5.0644255E0,0E0,0E0,0E0,0E0,0E0,0E0,0E0,0E0,0E0,0E0,0E0,0E0],"parents":[2147483647,0,0,1,1,2,2,3,3,4,4,7,7,8,8,9,9,10,10,12,12,13,13,15,15,16,16,17,17,18,18],"right_children":[2,4,6,8,10,-1,-1,12,14,16,18,-1,20,22,-1,24,26,28,30,-1,-1,-1,-1,-1,-1,-1,-1,-1,-1,-1,-1],"split_conditions":[3.1608543E0,9.0403485E-1,4.6772608E-1,1.4565829E0,8.956386E-1,-7.6996977E-3,6.3244805E-2,-1.1495711E0,8.3726746E-1,1.0125219E-1,1.0267031E0,5.9598144E-2,1.4688797E0,-7.257102E-1,-5.000035E-2,1.039237E0,2.9659042E-1,-9.964743E-1,1.5124485E0,1.644014E-3,2.4489619E-2,-1.1244062E-2,6.4163856E-2,-2.7211368E-2,4.0662732E-2,-1.0145E-2,-6.369709E-2,-4.0631037E-2,3.6930654E-2,-3.1111443E-3,-2.7144397E-2],"split_indices":[52,5,77,71,72,0,0,61,17,39,71,0,9,77,0,5,47,26,5,0,0,0,0,0,0,0,0,0,0,0,0],"split_type":[0,0,0,0,0,0,0,0,0,0,0,0,0,0,0,0,0,0,0,0,0,0,0,0,0,0,0,0,0,0,0],"sum_hessian":[8.591813E2,8.5285504E2,6.3262467E0,6.767238E2,1.761312E2,1.244685E0,5.0815616E0,6.652845E2,1.1439368E1,4.0293663E1,1.3583752E2,2.5009491E0,6.627835E2,9.459923E0,1.9794456E0,8.216484E0,3.2077175E1,2.4666227E1,1.111713E2,6.4140894E2,2.137457E1,1.2449346E0,8.214989E0,3.2357454E0,4.9807386E0,1.2150472E1,1.9926704E1,2.7243488E0,2.1941877E1,8.210678E1,2.9064518E1],"tree_param":{"num_deleted":"0","num_feature":"84","num_nodes":"31","size_leaf_vector":"1"}},{"base_weights":[-6.3947E-3,-1.6490852E-2,8.17251E-1,1.9065384E-2,-1.959229E-1,6.657865E-2,1.5688913E-1,4.8290256E-2,-2.5591698E-1,-6.409398E-2,-5.533024E-1,-4.4694778E-1,4.308493E-2,3.6419243E-2,8.5240567E-1,-7.4931854E-1,-4.3363128E-2,7.19208E-1,-1.3442723E-1,4.6454754E-2,-6.6258943E-1,2.5119409E-2,-5.579364E-2,9.0213254E-4,2.3064246E-2,5.1725097E-2,-8.867719E-3,4.613262E-2,-4.7802854E-2,1.9577552E-2,-2.2857698E-2,4.9829237E-2,-1.2155268E-2,-1.5334527E-2,1.0554574E-2,-4.2475175E-2,6.1454475E-3],"categories":[],"categories_nodes":[],"categories_segments":[],"categories_sizes":[],"default_left":[0,0,0,0,0,0,0,0,0,0,0,0,0,0,0,0,0,0,0,0,0,0,0,0,0,0,0,0,0,0,0,0,0,0,0,0,0],"id":21,"left_children":[1,3,5,7,9,-1,11,13,15,17,19,21,-1,23,25,27,29,31,33,-1,35,-1,-1,-1,-1,-1,-1,-1,-1,-1,-1,-1,-1,-1,-1,-1,-1],"loss_changes":[7.1151457E0,5.3925467E0,3.3102188E0,5.6849427E0,6.550118E0,0E0,2.7983046E0,6.067654E0,7.0958986E0,5.784729E0,6.696828E0,2.9180422E0,0E0,4.9155087E0,1.9180055E0,7.9348564E0,8.919299E0,2.5549483E0,5.7537885E0,0E0,5.3228903E0,0E0,0E0,0E0,0E0,0E0,0E0,0E0,0E0,0E0,0E0,0E0,0E0,0E0,0E0,0E0,0E0],"parents":[2147483647,0,0,1,1,2,2,3,3,4,4,6,6,7,7,8,8,9,9,10,10,11,11,13,13,14,14,15,15,16,16,17,17,18,18,20,20],"right_children":[2,4,6,8,10,-1,12,14,16,18,20,22,-1,24,26,28,30,32,34,-1,36,-1,-1,-1,-1,-1,-1,-1,-1,-1,-1,-1,-1,-1,-1,-1,-1],"split_conditions":[2.447856E0,1.0231308E0,1.8032062E0,3.3626912E0,2.3270585E-1,6.657865E-2,1.3751079E0,9.921804E-1,-5.808366E-1,-2.4227498E0,-8.9131916E-1,-5.4129547E-1,4.308493E-2,1.9203104E0,1.2867385E0,-2.0349622E-1,-1.253675E-1,8.733694E-1,6.127946E-1,4.6454754E-2,5.7962024E-1,2.5119409E-2,-5.579364E-2,9.0213254E-4,2.3064246E-2,5.1725097E-2,-8.867719E-3,4.613262E-2,-4.7802854E-2,1.9577552E-2,-2.2857698E-2,4.9829237E-2,-1.2155268E-2,-1.5334527E-2,1.0554574E-2,-4.2475175E-2,6.1454475E-3],"split_indices":[62,10,38,0,38,0,2,10,8,51,52,35,0,80,40,44,8,39,14,0,77,0,0,0,0,0,0,0,0,0,0,0,0,0,0,0,0],"split_type":[0,0,0,0,0,0,0,0,0,0,0,0,0,0,0,0,0,0,0,0,0,0,0,0,0,0,0,0,0,0,0,0,0,0,0,0,0],"sum_hessian":[8.530122E2,8.436508E2,9.361393E0,7.04868E2,1.3878282E2,4.6912165E0,4.6701765E0,6.378972E2,6.697074E1,1.0224601E2,3.653681E1,2.7123036E0,1.9578729E0,6.2964716E2,8.250078E0,1.940367E1,4.7567074E1,7.6641865E0,9.4581825E1,1.9936059E0,3.4543205E1,1.2240698E0,1.4882338E0,6.0454156E2,2.5105598E1,7.00649E0,1.243588E0,1.7541683E0,1.7649502E1,2.3217796E1,2.4349277E1,5.9217043E0,1.7424824E0,6.3189945E1,3.1391876E1,2.7837599E1,6.7056074E0],"tree_param":{"num_deleted":"0","num_feature":"84","num_nodes":"37","size_leaf_vector":"1"}}]},"name":"gbtree"},"learner_model_param":{"base_score":"[5E-1]","boost_from_average":"1","num_class":"0","num_feature":"84","num_target":"1"},"objective":{"name":"binary:logistic","reg_loss_param":{"scale_pos_weight":"1.00557101"}}},"version":[3,2,0]}